{"learner":{"attributes":{"scikit_learn":"{\"_estimator_type\": \"regressor\"}"},"feature_names":[],"feature_types":[],"gradient_booster":{"model":{"cats":{"enc":[],"feature_segments":[],"sorted_idx":[]},"gbtree_model_param":{"num_parallel_tree":"1","num_trees":"1500"},"iteration_indptr":[0,1,2,3,4,5,6,7,8,9,10,11,12,13,14,15,16,17,18,19,20,21,22,23,24,25,26,27,28,29,30,31,32,33,34,35,36,37,38,39,40,41,42,43,44,45,46,47,48,49,50,51,52,53,54,55,56,57,58,59,60,61,62,63,64,65,66,67,68,69,70,71,72,73,74,75,76,77,78,79,80,81,82,83,84,85,86,87,88,89,90,91,92,93,94,95,96,97,98,99,100,101,102,103,104,105,106,107,108,109,110,111,112,113,114,115,116,117,118,119,120,121,122,123,124,125,126,127,128,129,130,131,132,133,134,135,136,137,138,139,140,141,142,143,144,145,146,147,148,149,150,151,152,153,154,155,156,157,158,159,160,161,162,163,164,165,166,167,168,169,170,171,172,173,174,175,176,177,178,179,180,181,182,183,184,185,186,187,188,189,190,191,192,193,194,195,196,197,198,199,200,201,202,203,204,205,206,207,208,209,210,211,212,213,214,215,216,217,218,219,220,221,222,223,224,225,226,227,228,229,230,231,232,233,234,235,236,237,238,239,240,241,242,243,244,245,246,247,248,249,250,251,252,253,254,255,256,257,258,259,260,261,262,263,264,265,266,267,268,269,270,271,272,273,274,275,276,277,278,279,280,281,282,283,284,285,286,287,288,289,290,291,292,293,294,295,296,297,298,299,300,301,302,303,304,305,306,307,308,309,310,311,312,313,314,315,316,317,318,319,320,321,322,323,324,325,326,327,328,329,330,331,332,333,334,335,336,337,338,339,340,341,342,343,344,345,346,347,348,349,350,351,352,353,354,355,356,357,358,359,360,361,362,363,364,365,366,367,368,369,370,371,372,373,374,375,376,377,378,379,380,381,382,383,384,385,386,387,388,389,390,391,392,393,394,395,396,397,398,399,400,401,402,403,404,405,406,407,408,409,410,411,412,413,414,415,416,417,418,419,420,421,422,423,424,425,426,427,428,429,430,431,432,433,434,435,436,437,438,439,440,441,442,443,444,445,446,447,448,449,450,451,452,453,454,455,456,457,458,459,460,461,462,463,464,465,466,467,468,469,470,471,472,473,474,475,476,477,478,479,480,481,482,483,484,485,486,487,488,489,490,491,492,493,494,495,496,497,498,499,500,501,502,503,504,505,506,507,508,509,510,511,512,513,514,515,516,517,518,519,520,521,522,523,524,525,526,527,528,529,530,531,532,533,534,535,536,537,538,539,540,541,542,543,544,545,546,547,548,549,550,551,552,553,554,555,556,557,558,559,560,561,562,563,564,565,566,567,568,569,570,571,572,573,574,575,576,577,578,579,580,581,582,583,584,585,586,587,588,589,590,591,592,593,594,595,596,597,598,599,600,601,602,603,604,605,606,607,608,609,610,611,612,613,614,615,616,617,618,619,620,621,622,623,624,625,626,627,628,629,630,631,632,633,634,635,636,637,638,639,640,641,642,643,644,645,646,647,648,649,650,651,652,653,654,655,656,657,658,659,660,661,662,663,664,665,666,667,668,669,670,671,672,673,674,675,676,677,678,679,680,681,682,683,684,685,686,687,688,689,690,691,692,693,694,695,696,697,698,699,700,701,702,703,704,705,706,707,708,709,710,711,712,713,714,715,716,717,718,719,720,721,722,723,724,725,726,727,728,729,730,731,732,733,734,735,736,737,738,739,740,741,742,743,744,745,746,747,748,749,750,751,752,753,754,755,756,757,758,759,760,761,762,763,764,765,766,767,768,769,770,771,772,773,774,775,776,777,778,779,780,781,782,783,784,785,786,787,788,789,790,791,792,793,794,795,796,797,798,799,800,801,802,803,804,805,806,807,808,809,810,811,812,813,814,815,816,817,818,819,820,821,822,823,824,825,826,827,828,829,830,831,832,833,834,835,836,837,838,839,840,841,842,843,844,845,846,847,848,849,850,851,852,853,854,855,856,857,858,859,860,861,862,863,864,865,866,867,868,869,870,871,872,873,874,875,876,877,878,879,880,881,882,883,884,885,886,887,888,889,890,891,892,893,894,895,896,897,898,899,900,901,902,903,904,905,906,907,908,909,910,911,912,913,914,915,916,917,918,919,920,921,922,923,924,925,926,927,928,929,930,931,932,933,934,935,936,937,938,939,940,941,942,943,944,945,946,947,948,949,950,951,952,953,954,955,956,957,958,959,960,961,962,963,964,965,966,967,968,969,970,971,972,973,974,975,976,977,978,979,980,981,982,983,984,985,986,987,988,989,990,991,992,993,994,995,996,997,998,999,1000,1001,1002,1003,1004,1005,1006,1007,1008,1009,1010,1011,1012,1013,1014,1015,1016,1017,1018,1019,1020,1021,1022,1023,1024,1025,1026,1027,1028,1029,1030,1031,1032,1033,1034,1035,1036,1037,1038,1039,1040,1041,1042,1043,1044,1045,1046,1047,1048,1049,1050,1051,1052,1053,1054,1055,1056,1057,1058,1059,1060,1061,1062,1063,1064,1065,1066,1067,1068,1069,1070,1071,1072,1073,1074,1075,1076,1077,1078,1079,1080,1081,1082,1083,1084,1085,1086,1087,1088,1089,1090,1091,1092,1093,1094,1095,1096,1097,1098,1099,1100,1101,1102,1103,1104,1105,1106,1107,1108,1109,1110,1111,1112,1113,1114,1115,1116,1117,1118,1119,1120,1121,1122,1123,1124,1125,1126,1127,1128,1129,1130,1131,1132,1133,1134,1135,1136,1137,1138,1139,1140,1141,1142,1143,1144,1145,1146,1147,1148,1149,1150,1151,1152,1153,1154,1155,1156,1157,1158,1159,1160,1161,1162,1163,1164,1165,1166,1167,1168,1169,1170,1171,1172,1173,1174,1175,1176,1177,1178,1179,1180,1181,1182,1183,1184,1185,1186,1187,1188,1189,1190,1191,1192,1193,1194,1195,1196,1197,1198,1199,1200,1201,1202,1203,1204,1205,1206,1207,1208,1209,1210,1211,1212,1213,1214,1215,1216,1217,1218,1219,1220,1221,1222,1223,1224,1225,1226,1227,1228,1229,1230,1231,1232,1233,1234,1235,1236,1237,1238,1239,1240,1241,1242,1243,1244,1245,1246,1247,1248,1249,1250,1251,1252,1253,1254,1255,1256,1257,1258,1259,1260,1261,1262,1263,1264,1265,1266,1267,1268,1269,1270,1271,1272,1273,1274,1275,1276,1277,1278,1279,1280,1281,1282,1283,1284,1285,1286,1287,1288,1289,1290,1291,1292,1293,1294,1295,1296,1297,1298,1299,1300,1301,1302,1303,1304,1305,1306,1307,1308,1309,1310,1311,1312,1313,1314,1315,1316,1317,1318,1319,1320,1321,1322,1323,1324,1325,1326,1327,1328,1329,1330,1331,1332,1333,1334,1335,1336,1337,1338,1339,1340,1341,1342,1343,1344,1345,1346,1347,1348,1349,1350,1351,1352,1353,1354,1355,1356,1357,1358,1359,1360,1361,1362,1363,1364,1365,1366,1367,1368,1369,1370,1371,1372,1373,1374,1375,1376,1377,1378,1379,1380,1381,1382,1383,1384,1385,1386,1387,1388,1389,1390,1391,1392,1393,1394,1395,1396,1397,1398,1399,1400,1401,1402,1403,1404,1405,1406,1407,1408,1409,1410,1411,1412,1413,1414,1415,1416,1417,1418,1419,1420,1421,1422,1423,1424,1425,1426,1427,1428,1429,1430,1431,1432,1433,1434,1435,1436,1437,1438,1439,1440,1441,1442,1443,1444,1445,1446,1447,1448,1449,1450,1451,1452,1453,1454,1455,1456,1457,1458,1459,1460,1461,1462,1463,1464,1465,1466,1467,1468,1469,1470,1471,1472,1473,1474,1475,1476,1477,1478,1479,1480,1481,1482,1483,1484,1485,1486,1487,1488,1489,1490,1491,1492,1493,1494,1495,1496,1497,1498,1499,1500],"tree_info":[0,0,0,0,0,0,0,0,0,0,0,0,0,0,0,0,0,0,0,0,0,0,0,0,0,0,0,0,0,0,0,0,0,0,0,0,0,0,0,0,0,0,0,0,0,0,0,0,0,0,0,0,0,0,0,0,0,0,0,0,0,0,0,0,0,0,0,0,0,0,0,0,0,0,0,0,0,0,0,0,0,0,0,0,0,0,0,0,0,0,0,0,0,0,0,0,0,0,0,0,0,0,0,0,0,0,0,0,0,0,0,0,0,0,0,0,0,0,0,0,0,0,0,0,0,0,0,0,0,0,0,0,0,0,0,0,0,0,0,0,0,0,0,0,0,0,0,0,0,0,0,0,0,0,0,0,0,0,0,0,0,0,0,0,0,0,0,0,0,0,0,0,0,0,0,0,0,0,0,0,0,0,0,0,0,0,0,0,0,0,0,0,0,0,0,0,0,0,0,0,0,0,0,0,0,0,0,0,0,0,0,0,0,0,0,0,0,0,0,0,0,0,0,0,0,0,0,0,0,0,0,0,0,0,0,0,0,0,0,0,0,0,0,0,0,0,0,0,0,0,0,0,0,0,0,0,0,0,0,0,0,0,0,0,0,0,0,0,0,0,0,0,0,0,0,0,0,0,0,0,0,0,0,0,0,0,0,0,0,0,0,0,0,0,0,0,0,0,0,0,0,0,0,0,0,0,0,0,0,0,0,0,0,0,0,0,0,0,0,0,0,0,0,0,0,0,0,0,0,0,0,0,0,0,0,0,0,0,0,0,0,0,0,0,0,0,0,0,0,0,0,0,0,0,0,0,0,0,0,0,0,0,0,0,0,0,0,0,0,0,0,0,0,0,0,0,0,0,0,0,0,0,0,0,0,0,0,0,0,0,0,0,0,0,0,0,0,0,0,0,0,0,0,0,0,0,0,0,0,0,0,0,0,0,0,0,0,0,0,0,0,0,0,0,0,0,0,0,0,0,0,0,0,0,0,0,0,0,0,0,0,0,0,0,0,0,0,0,0,0,0,0,0,0,0,0,0,0,0,0,0,0,0,0,0,0,0,0,0,0,0,0,0,0,0,0,0,0,0,0,0,0,0,0,0,0,0,0,0,0,0,0,0,0,0,0,0,0,0,0,0,0,0,0,0,0,0,0,0,0,0,0,0,0,0,0,0,0,0,0,0,0,0,0,0,0,0,0,0,0,0,0,0,0,0,0,0,0,0,0,0,0,0,0,0,0,0,0,0,0,0,0,0,0,0,0,0,0,0,0,0,0,0,0,0,0,0,0,0,0,0,0,0,0,0,0,0,0,0,0,0,0,0,0,0,0,0,0,0,0,0,0,0,0,0,0,0,0,0,0,0,0,0,0,0,0,0,0,0,0,0,0,0,0,0,0,0,0,0,0,0,0,0,0,0,0,0,0,0,0,0,0,0,0,0,0,0,0,0,0,0,0,0,0,0,0,0,0,0,0,0,0,0,0,0,0,0,0,0,0,0,0,0,0,0,0,0,0,0,0,0,0,0,0,0,0,0,0,0,0,0,0,0,0,0,0,0,0,0,0,0,0,0,0,0,0,0,0,0,0,0,0,0,0,0,0,0,0,0,0,0,0,0,0,0,0,0,0,0,0,0,0,0,0,0,0,0,0,0,0,0,0,0,0,0,0,0,0,0,0,0,0,0,0,0,0,0,0,0,0,0,0,0,0,0,0,0,0,0,0,0,0,0,0,0,0,0,0,0,0,0,0,0,0,0,0,0,0,0,0,0,0,0,0,0,0,0,0,0,0,0,0,0,0,0,0,0,0,0,0,0,0,0,0,0,0,0,0,0,0,0,0,0,0,0,0,0,0,0,0,0,0,0,0,0,0,0,0,0,0,0,0,0,0,0,0,0,0,0,0,0,0,0,0,0,0,0,0,0,0,0,0,0,0,0,0,0,0,0,0,0,0,0,0,0,0,0,0,0,0,0,0,0,0,0,0,0,0,0,0,0,0,0,0,0,0,0,0,0,0,0,0,0,0,0,0,0,0,0,0,0,0,0,0,0,0,0,0,0,0,0,0,0,0,0,0,0,0,0,0,0,0,0,0,0,0,0,0,0,0,0,0,0,0,0,0,0,0,0,0,0,0,0,0,0,0,0,0,0,0,0,0,0,0,0,0,0,0,0,0,0,0,0,0,0,0,0,0,0,0,0,0,0,0,0,0,0,0,0,0,0,0,0,0,0,0,0,0,0,0,0,0,0,0,0,0,0,0,0,0,0,0,0,0,0,0,0,0,0,0,0,0,0,0,0,0,0,0,0,0,0,0,0,0,0,0,0,0,0,0,0,0,0,0,0,0,0,0,0,0,0,0,0,0,0,0,0,0,0,0,0,0,0,0,0,0,0,0,0,0,0,0,0,0,0,0,0,0,0,0,0,0,0,0,0,0,0,0,0,0,0,0,0,0,0,0,0,0,0,0,0,0,0,0,0,0,0,0,0,0,0,0,0,0,0,0,0,0,0,0,0,0,0,0,0,0,0,0,0,0,0,0,0,0,0,0,0,0,0,0,0,0,0,0,0,0,0,0,0,0,0,0,0,0,0,0,0,0,0,0,0,0,0,0,0,0,0,0,0,0,0,0,0,0,0,0,0,0,0,0,0,0,0,0,0,0,0,0,0,0,0,0,0,0,0,0,0,0,0,0,0,0,0,0,0,0,0,0,0,0,0,0,0,0,0,0,0,0,0,0,0,0,0,0,0,0,0,0,0,0,0,0,0,0,0,0,0,0,0,0,0,0,0,0,0,0,0,0,0,0,0,0,0,0,0,0,0,0,0,0,0,0,0,0,0,0,0,0,0,0,0,0,0,0,0,0,0,0,0,0,0,0,0,0,0,0,0,0,0,0,0,0,0,0,0,0,0,0,0,0,0,0,0,0,0,0,0,0,0,0,0,0,0,0,0,0,0,0,0,0,0,0,0,0,0,0,0,0,0,0,0,0,0,0,0,0,0,0,0,0,0,0,0,0,0,0,0,0,0,0,0,0,0,0,0,0,0,0,0,0,0,0,0,0,0,0,0,0,0,0,0,0,0,0,0,0,0,0,0,0,0,0,0,0,0,0,0,0,0,0,0,0,0,0,0,0,0,0,0,0,0,0,0,0,0,0,0,0,0,0,0,0,0,0,0,0,0,0,0,0,0,0,0,0,0,0,0,0,0,0,0,0,0,0,0,0,0,0,0,0,0,0,0,0,0,0,0,0,0,0,0,0,0,0,0,0,0,0,0,0,0,0,0,0,0,0,0,0,0,0,0,0,0,0,0,0,0,0,0,0,0,0,0,0,0,0,0,0,0,0,0,0,0,0,0,0,0,0,0,0,0,0,0,0,0,0,0,0,0,0],"trees":[{"base_weights":[2.6368296E-3,-3.825242E-1,2.5355557E-1,-6.4010906E-1,-2.861395E-1,1.1020274E-1,5.570654E-1,-4.260108E-1,-6.9091016E-1,-1.6027441E-2,-3.685743E-1,4.3985707E-1,-6.476564E-3,4.342982E-1,8.234407E-1,-4.4224685E-1,1.1968167E-2,-8.6268723E-1,-6.5561116E-1,-1.3795973E-1,2.0601448E-1,-7.416042E-1,-3.1919554E-1,9.392533E-1,3.8635752E-1,1.9642557E-1,-1.266607E-1,5.911907E-1,2.7360934E-1,1.0807544E0,7.3383796E-1,5.539274E-4,-1.4186614E-2,-2.2215694E-2,-2.8969359E-2,-2.2667466E-2,-1.7583793E-2,2.2072533E-2,-4.4808886E-3,-1.1899666E-2,7.3601296E-3,-1.9234668E-2,-2.7526198E-2,-3.2276625E-3,-1.1205705E-2,1.6030148E-2,3.2672223E-2,6.1373226E-3,1.3495241E-2,-1.4006724E-3,8.477805E-3,1.7353289E-2,-5.04888E-3,1.3068225E-2,2.1383284E-2,1.4544135E-2,4.8139044E-3,8.71979E-3,3.289888E-2,1.9744078E-2,2.9919123E-2],"categories":[],"categories_nodes":[],"categories_segments":[],"categories_sizes":[],"default_left":[1,0,0,0,0,0,0,1,0,0,0,0,0,0,0,0,0,0,0,0,0,0,0,0,0,0,0,0,0,0,0,0,0,0,0,0,0,0,0,0,0,0,0,0,0,0,0,0,0,0,0,0,0,0,0,0,0,0,0,0,0],"id":0,"left_children":[1,3,5,7,9,11,13,15,17,19,21,23,25,27,29,31,-1,33,35,37,39,41,43,45,47,49,51,53,55,57,59,-1,-1,-1,-1,-1,-1,-1,-1,-1,-1,-1,-1,-1,-1,-1,-1,-1,-1,-1,-1,-1,-1,-1,-1,-1,-1,-1,-1,-1,-1],"loss_changes":[8.3297595E2,8.422946E1,2.2701205E2,9.766357E0,5.512625E1,1.363956E2,5.4385803E1,2.5873375E0,3.9578247E0,1.5731389E1,3.4705597E1,2.4404205E1,6.3915203E1,2.878032E1,1.1357422E1,2.5073166E0,0E0,8.445587E-1,3.8847656E0,3.8460627E0,4.979288E0,3.3173294E0,1.9238892E1,4.8172226E0,9.590126E0,2.0438164E1,4.8419304E1,1.0661163E1,1.3518948E1,1.3619843E0,7.2019196E0,0E0,0E0,0E0,0E0,0E0,0E0,0E0,0E0,0E0,0E0,0E0,0E0,0E0,0E0,0E0,0E0,0E0,0E0,0E0,0E0,0E0,0E0,0E0,0E0,0E0,0E0,0E0,0E0,0E0,0E0],"parents":[2147483647,0,0,1,1,2,2,3,3,4,4,5,5,6,6,7,7,8,8,9,9,10,10,11,11,12,12,13,13,14,14,15,15,17,17,18,18,19,19,20,20,21,21,22,22,23,23,24,24,25,25,26,26,27,27,28,28,29,29,30,30],"right_children":[2,4,6,8,10,12,14,16,18,20,22,24,26,28,30,32,-1,34,36,38,40,42,44,46,48,50,52,54,56,58,60,-1,-1,-1,-1,-1,-1,-1,-1,-1,-1,-1,-1,-1,-1,-1,-1,-1,-1,-1,-1,-1,-1,-1,-1,-1,-1,-1,-1,-1,-1],"split_conditions":[2.5021808E0,7.9E1,9E2,1.3E2,1.3E2,1.3E2,4.2466E0,2.2446666E0,2.00001E0,1.21E2,2.00001E0,2.00001E0,8E1,7.9E1,2.00001E0,1.56E1,1.1968167E-2,1.011895E0,5.4E1,2.00001E0,2.00001E0,2.00001E0,4.4E1,1.55E2,1.824E2,1.8E2,2.00001E0,3.7302198E0,1.3E2,2.00001E0,6.138821E0,5.539274E-4,-1.4186614E-2,-2.2215694E-2,-2.8969359E-2,-2.2667466E-2,-1.7583793E-2,2.2072533E-2,-4.4808886E-3,-1.1899666E-2,7.3601296E-3,-1.9234668E-2,-2.7526198E-2,-3.2276625E-3,-1.1205705E-2,1.6030148E-2,3.2672223E-2,6.1373226E-3,1.3495241E-2,-1.4006724E-3,8.477805E-3,1.7353289E-2,-5.04888E-3,1.3068225E-2,2.1383284E-2,1.4544135E-2,4.8139044E-3,8.71979E-3,3.289888E-2,1.9744078E-2,2.9919123E-2],"split_indices":[1,3,3,7,7,7,1,1,20,3,19,17,9,9,6,3,0,5,3,723,23,1533,9,3,3,3,17,1,7,383,1,0,0,0,0,0,0,0,0,0,0,0,0,0,0,0,0,0,0,0,0,0,0,0,0,0,0,0,0,0,0],"split_type":[0,0,0,0,0,0,0,0,0,0,0,0,0,0,0,0,0,0,0,0,0,0,0,0,0,0,0,0,0,0,0,0,0,0,0,0,0,0,0,0,0,0,0,0,0,0,0,0,0,0,0,0,0,0,0,0,0,0,0,0,0],"sum_hessian":[8.617E3,3.399E3,5.218E3,9.24E2,2.475E3,3.545E3,1.673E3,1.79E2,7.45E2,5.79E2,1.896E3,9.26E2,2.619E3,1.147E3,5.26E2,1.76E2,3E0,1.23E2,6.22E2,3.74E2,2.05E2,2.2E2,1.676E3,8.8E1,8.38E2,9.74E2,1.645E3,5.79E2,5.68E2,1.33E2,3.93E2,1.1E1,1.65E2,6E1,6.3E1,2.51E2,3.71E2,4E0,3.7E2,1.2E1,1.93E2,1.43E2,7.7E1,3.43E2,1.333E3,2.5E1,6.3E1,2.18E2,6.2E2,2.55E2,7.19E2,9.1E1,1.554E3,2.56E2,3.23E2,1.97E2,3.71E2,3E0,1.3E2,3.08E2,8.5E1],"tree_param":{"num_deleted":"0","num_feature":"1538","num_nodes":"61","size_leaf_vector":"1"}},{"base_weights":[-3.031258E-3,-2.6673347E-1,4.5105928E-1,-5.211445E-1,-1.3658907E-1,3.07155E-1,7.921847E-1,-6.79732E-1,-4.0784678E-1,1.6541205E-1,-2.3790765E-1,5.099435E-1,1.5339786E-1,1.0715802E0,7.101392E-1,-4.0872365E-1,-7.1434665E-1,-2.153419E-1,-4.7269735E-1,-2.224252E-2,2.6637292E-1,-6.0632074E-1,-1.7521803E-1,4.1478142E-1,6.302679E-1,4.717365E-1,4.141456E-2,9.14986E-1,1.1898977E0,1.0216885E0,6.458545E-1,-2.5346146E-3,-1.3311205E-2,-2.7971424E-2,-2.0457136E-2,1.9806342E-2,-7.1173157E-3,-1.9637205E-2,-1.2609449E-2,7.89116E-3,-1.4483281E-3,-3.6418466E-3,9.182777E-3,-2.2775365E-2,-1.5361132E-2,-1.2004065E-3,-8.540196E-3,8.722578E-3,1.4904871E-2,1.6029226E-2,2.122384E-2,3.0651128E-2,1.294334E-2,2.0234793E-2,1.17618285E-4,2.8076997E-2,5.9997365E-3,4.406962E-3,3.59267E-2,1.3515329E-3,3.0877871E-2,1.6982269E-2,2.7549842E-2],"categories":[],"categories_nodes":[],"categories_segments":[],"categories_sizes":[],"default_left":[0,0,0,0,0,0,0,0,0,0,0,0,0,0,0,0,0,0,0,0,0,0,0,0,0,0,0,0,0,0,0,0,0,0,0,0,0,0,0,0,0,0,0,0,0,0,0,0,0,0,0,0,0,0,0,0,0,0,0,0,0,0,0],"id":1,"left_children":[1,3,5,7,9,11,13,15,17,19,21,23,25,27,29,31,33,35,37,39,41,43,45,47,49,51,53,55,57,59,61,-1,-1,-1,-1,-1,-1,-1,-1,-1,-1,-1,-1,-1,-1,-1,-1,-1,-1,-1,-1,-1,-1,-1,-1,-1,-1,-1,-1,-1,-1,-1,-1],"loss_changes":[1.0410609E3,1.8203476E2,1.5654828E2,3.3160492E1,1.11417244E2,7.001482E1,2.0947205E1,6.9687805E0,1.34808655E1,1.7341305E1,6.2852585E1,1.0833954E1,4.561068E1,2.8577118E0,1.4060577E1,9.833689E-1,4.209564E0,5.4493E0,7.470398E0,2.3968692E0,9.201355E0,5.31839E0,3.4484688E1,5.3914337E0,2.777588E0,6.9381943E0,2.249967E1,1.248352E0,7.666931E-1,8.708496E-1,1.27836E1,0E0,0E0,0E0,0E0,0E0,0E0,0E0,0E0,0E0,0E0,0E0,0E0,0E0,0E0,0E0,0E0,0E0,0E0,0E0,0E0,0E0,0E0,0E0,0E0,0E0,0E0,0E0,0E0,0E0,0E0,0E0,0E0],"parents":[2147483647,0,0,1,1,2,2,3,3,4,4,5,5,6,6,7,7,8,8,9,9,10,10,11,11,12,12,13,13,14,14,15,15,16,16,17,17,18,18,19,19,20,20,21,21,22,22,23,23,24,24,25,25,26,26,27,27,28,28,29,29,30,30],"right_children":[2,4,6,8,10,12,14,16,18,20,22,24,26,28,30,32,34,36,38,40,42,44,46,48,50,52,54,56,58,60,62,-1,-1,-1,-1,-1,-1,-1,-1,-1,-1,-1,-1,-1,-1,-1,-1,-1,-1,-1,-1,-1,-1,-1,-1,-1,-1,-1,-1,-1,-1,-1,-1],"split_conditions":[1.72E2,8.6E1,2.82E2,6.0512424E1,1.3E2,7.5E1,2.00001E0,1.4E1,4.4E1,1.11245346E2,2.00001E0,2.2E2,1.3E2,3.6E2,2.00001E0,2.00001E0,2.00001E0,1.986E3,2.00001E0,2.00001E0,2.00001E0,2.4875042E0,8.8E1,1.981E3,1.986E3,2.00001E0,2.00001E0,1.011895E0,2.00001E0,2.00001E0,4.56E2,-2.5346146E-3,-1.3311205E-2,-2.7971424E-2,-2.0457136E-2,1.9806342E-2,-7.1173157E-3,-1.9637205E-2,-1.2609449E-2,7.89116E-3,-1.4483281E-3,-3.6418466E-3,9.182777E-3,-2.2775365E-2,-1.5361132E-2,-1.2004065E-3,-8.540196E-3,8.722578E-3,1.4904871E-2,1.6029226E-2,2.122384E-2,3.0651128E-2,1.294334E-2,2.0234793E-2,1.17618285E-4,2.8076997E-2,5.9997365E-3,4.406962E-3,3.59267E-2,1.3515329E-3,3.0877871E-2,1.6982269E-2,2.7549842E-2],"split_indices":[2,2,2,2,7,9,1530,9,9,2,19,2,7,2,24,16,23,0,14,25,19,1,9,0,0,17,17,5,1152,100,2,0,0,0,0,0,0,0,0,0,0,0,0,0,0,0,0,0,0,0,0,0,0,0,0,0,0,0,0,0,0,0,0],"split_type":[0,0,0,0,0,0,0,0,0,0,0,0,0,0,0,0,0,0,0,0,0,0,0,0,0,0,0,0,0,0,0,0,0,0,0,0,0,0,0,0,0,0,0,0,0,0,0,0,0,0,0,0,0,0,0,0,0,0,0,0,0,0,0],"sum_hessian":[8.692E3,5.499E3,3.193E3,1.86E3,3.639E3,2.247E3,9.46E2,7.73E2,1.087E3,9.14E2,2.725E3,9.68E2,1.279E3,2.12E2,7.34E2,8.9E1,6.84E2,2.75E2,8.12E2,3.2E2,5.94E2,3.95E2,2.33E3,5.43E2,4.25E2,3.32E2,9.47E2,9.5E1,1.17E2,1.23E2,6.11E2,9E0,8E1,8.5E1,5.99E2,6E0,2.69E2,1.79E2,6.33E2,2.6E1,2.94E2,5.5E1,5.39E2,1.48E2,2.47E2,1.043E3,1.287E3,2.18E2,3.25E2,1.93E2,2.32E2,2.1E1,3.11E2,5.2E1,8.95E2,9.2E1,3E0,1E0,1.16E2,1E0,1.22E2,4.75E2,1.36E2],"tree_param":{"num_deleted":"0","num_feature":"1538","num_nodes":"63","size_leaf_vector":"1"}},{"base_weights":[-2.1297485E-3,-2.554552E-1,4.426014E-1,-4.2051545E-1,-6.372233E-2,2.8121033E-1,7.531001E-1,-6.596578E-1,-3.4036094E-1,2.5394547E-1,-1.6968891E-1,-1.06124006E-1,3.7933987E-1,9.9900013E-1,6.709115E-1,-4.4278368E-1,-7.053567E-1,-1.304175E-1,-4.0752026E-1,4.980764E-1,2.277867E-1,-3.5899785E-1,-9.177722E-2,-1.8708725E-1,2.6173759E-1,3.141702E-1,5.331109E-1,8.755317E-1,1.1262391E0,4.945972E-1,8.136249E-1,8.404083E-4,-1.3731449E-2,-2.3654249E-2,-1.8079767E-2,-5.957358E-3,-5.6819606E-4,-1.0174738E-2,-1.6792888E-2,1.7978452E-2,1.0721874E-2,1.22209145E-2,5.614426E-3,-1.3805148E-2,-4.9121585E-3,1.0894935E-2,-3.4146486E-3,1.6771518E-2,-7.046118E-3,1.2390565E-2,-1.3521987E-3,1.7940626E-2,8.307026E-3,2.9121397E-2,1.5254711E-2,2.5780678E-3,2.659057E-2,-1.9018507E-3,3.408316E-2,7.802098E-3,1.7052952E-2,2.1208089E-2,2.8671304E-2],"categories":[],"categories_nodes":[],"categories_segments":[],"categories_sizes":[],"default_left":[0,0,0,0,0,0,0,0,0,0,0,0,0,0,0,0,0,0,0,0,0,0,0,0,0,0,0,0,0,0,0,0,0,0,0,0,0,0,0,0,0,0,0,0,0,0,0,0,0,0,0,0,0,0,0,0,0,0,0,0,0,0,0],"id":2,"left_children":[1,3,5,7,9,11,13,15,17,19,21,23,25,27,29,31,33,35,37,39,41,43,45,47,49,51,53,55,57,59,61,-1,-1,-1,-1,-1,-1,-1,-1,-1,-1,-1,-1,-1,-1,-1,-1,-1,-1,-1,-1,-1,-1,-1,-1,-1,-1,-1,-1,-1,-1,-1,-1],"loss_changes":[9.7542566E2,1.7454065E2,1.572392E2,5.6590393E1,8.598262E1,7.8680756E1,2.1035461E1,7.051483E0,3.1276306E1,3.9673042E0,2.8212112E1,1.2528155E1,1.6377533E1,3.2085266E0,1.9928802E1,9.4072914E-1,4.7489014E0,4.0993967E0,1.7326263E1,6.5431404E-1,4.149227E0,1.0948006E1,1.3660608E1,1.2395928E1,3.5461354E0,1.2127129E1,4.78566E0,1.1199875E0,1.5744171E0,6.1552734E0,6.070099E0,0E0,0E0,0E0,0E0,0E0,0E0,0E0,0E0,0E0,0E0,0E0,0E0,0E0,0E0,0E0,0E0,0E0,0E0,0E0,0E0,0E0,0E0,0E0,0E0,0E0,0E0,0E0,0E0,0E0,0E0,0E0,0E0],"parents":[2147483647,0,0,1,1,2,2,3,3,4,4,5,5,6,6,7,7,8,8,9,9,10,10,11,11,12,12,13,13,14,14,15,15,16,16,17,17,18,18,19,19,20,20,21,21,22,22,23,23,24,24,25,25,26,26,27,27,28,28,29,29,30,30],"right_children":[2,4,6,8,10,12,14,16,18,20,22,24,26,28,30,32,34,36,38,40,42,44,46,48,50,52,54,56,58,60,62,-1,-1,-1,-1,-1,-1,-1,-1,-1,-1,-1,-1,-1,-1,-1,-1,-1,-1,-1,-1,-1,-1,-1,-1,-1,-1,-1,-1,-1,-1,-1,-1],"split_conditions":[1.72E2,1.09E2,2.7E2,6.0512424E1,1.3E2,2.00001E0,1.3E2,1.3E2,1.3E2,2.00001E0,2.00001E0,1.437E3,2.28E2,3.6E2,1.15E3,2.00001E0,5E1,9.028802E1,2.00001E0,2.00001E0,2.00001E0,5.04E2,2.00001E0,2.00001E0,1.011895E0,2.00001E0,2.00001E0,2.00001E0,2.00001E0,2.00001E0,3.85E2,8.404083E-4,-1.3731449E-2,-2.3654249E-2,-1.8079767E-2,-5.957358E-3,-5.6819606E-4,-1.0174738E-2,-1.6792888E-2,1.7978452E-2,1.0721874E-2,1.22209145E-2,5.614426E-3,-1.3805148E-2,-4.9121585E-3,1.0894935E-2,-3.4146486E-3,1.6771518E-2,-7.046118E-3,1.2390565E-2,-1.3521987E-3,1.7940626E-2,8.307026E-3,2.9121397E-2,1.5254711E-2,2.5780678E-3,2.659057E-2,-1.9018507E-3,3.408316E-2,7.802098E-3,1.7052952E-2,2.1208089E-2,2.8671304E-2],"split_indices":[2,2,2,2,7,1535,7,7,7,24,1535,3,2,2,3,1435,2,2,13,4,15,3,17,17,5,24,17,338,1066,1535,2,0,0,0,0,0,0,0,0,0,0,0,0,0,0,0,0,0,0,0,0,0,0,0,0,0,0,0,0,0,0,0,0],"split_type":[0,0,0,0,0,0,0,0,0,0,0,0,0,0,0,0,0,0,0,0,0,0,0,0,0,0,0,0,0,0,0,0,0,0,0,0,0,0,0,0,0,0,0,0,0,0,0,0,0,0,0,0,0,0,0,0,0,0,0,0,0,0,0],"sum_hessian":[8.656E3,5.515E3,3.141E3,2.963E3,2.552E3,2.068E3,1.073E3,7.42E2,2.221E3,6.38E2,1.914E3,4.18E2,1.65E3,2.66E2,8.07E2,1.31E2,6.11E2,5.39E2,1.682E3,6E1,5.78E2,5.57E2,1.357E3,3.43E2,7.5E1,1.161E3,4.89E2,1.39E2,1.27E2,3.63E2,4.44E2,4E0,1.27E2,3.34E2,2.77E2,3.34E2,2.05E2,1.163E3,5.19E2,3.3E1,2.7E1,1.05E2,4.73E2,3.66E2,1.91E2,6.2E1,1.295E3,2E1,3.23E2,5E1,2.5E1,1.33E2,1.028E3,2.4E1,4.65E2,2E0,1.37E2,1E0,1.26E2,8.8E1,2.75E2,2.57E2,1.87E2],"tree_param":{"num_deleted":"0","num_feature":"1538","num_nodes":"63","size_leaf_vector":"1"}},{"base_weights":[-6.6466387E-3,-2.6410112E-1,4.042034E-1,-4.3938944E-1,-9.5234014E-2,2.5574613E-1,7.1633303E-1,-6.2226796E-1,-3.3992743E-1,2.1382052E-1,-1.9835716E-1,-1.00524314E-1,3.4364358E-1,6.4779884E-1,9.698032E-1,-4.1977662E-1,-6.6531456E-1,-7.1662617E-1,-3.039825E-1,-1.3995418E-1,2.501702E-1,-5.726374E-1,-1.3489702E-1,5.674347E-2,-3.6643007E-1,2.1220347E-1,4.425263E-1,8.872119E-1,5.648328E-1,-1.329978E-2,9.780176E-1,-1.5205986E-2,-9.924001E-3,-2.2869762E-2,-1.7644443E-2,-2.1806335E-2,1.1701726E-2,-3.6651902E-3,-1.0925048E-2,-1.5475025E-3,-1.5557866E-2,4.0273257E-3,9.477105E-3,-2.4388373E-2,-1.33569995E-2,-9.150226E-3,-2.279679E-3,-1.5285698E-3,9.374595E-3,-1.6984101E-2,-7.979549E-3,1.0387876E-2,3.6884844E-3,1.4252591E-2,4.0920093E-3,1.8217448E-2,2.8023675E-2,2.7330483E-3,1.815708E-2,2.2071809E-2,3.1125769E-2],"categories":[],"categories_nodes":[],"categories_segments":[],"categories_sizes":[],"default_left":[0,0,0,0,0,0,0,0,0,0,0,0,0,0,0,0,0,1,0,0,0,0,1,0,0,0,1,0,0,0,0,0,0,0,0,0,0,0,0,0,0,0,0,0,0,0,0,0,0,0,0,0,0,0,0,0,0,0,0,0,0],"id":3,"left_children":[1,3,5,7,9,11,13,15,17,19,21,23,25,27,29,31,33,35,37,39,41,43,45,47,49,51,53,55,57,-1,59,-1,-1,-1,-1,-1,-1,-1,-1,-1,-1,-1,-1,-1,-1,-1,-1,-1,-1,-1,-1,-1,-1,-1,-1,-1,-1,-1,-1,-1,-1],"loss_changes":[9.170718E2,1.5772845E2,1.5458545E2,4.7353943E1,8.6603165E1,7.096361E1,1.8063354E1,7.739929E0,2.2746704E1,8.779541E0,4.8305313E1,1.8797258E1,2.3521927E1,1.6382538E1,3.0686188E0,1.1031532E0,5.2185364E0,1.9512863E0,1.6916153E1,2.1147418E0,4.659256E0,8.669846E0,1.7443113E1,7.810436E0,3.1993618E0,9.314297E0,1.0261475E1,2.2826843E0,1.2079773E1,0E0,2.4951782E0,0E0,0E0,0E0,0E0,0E0,0E0,0E0,0E0,0E0,0E0,0E0,0E0,0E0,0E0,0E0,0E0,0E0,0E0,0E0,0E0,0E0,0E0,0E0,0E0,0E0,0E0,0E0,0E0,0E0,0E0],"parents":[2147483647,0,0,1,1,2,2,3,3,4,4,5,5,6,6,7,7,8,8,9,9,10,10,11,11,12,12,13,13,14,14,15,15,16,16,17,17,18,18,19,19,20,20,21,21,22,22,23,23,24,24,25,25,26,26,27,27,28,28,30,30],"right_children":[2,4,6,8,10,12,14,16,18,20,22,24,26,28,30,32,34,36,38,40,42,44,46,48,50,52,54,56,58,-1,60,-1,-1,-1,-1,-1,-1,-1,-1,-1,-1,-1,-1,-1,-1,-1,-1,-1,-1,-1,-1,-1,-1,-1,-1,-1,-1,-1,-1,-1,-1],"split_conditions":[1.68E2,1.000326E2,2.7E2,6.6E1,1.3E2,2.00001E0,4.56E2,1.3E2,2.00001E0,2.00001E0,2.00001E0,2.015E3,1.97E2,1.3E2,2.00001E0,5.3E1,5E1,5E0,1.3E2,1.011895E0,1.26E2,2.00001E0,6.801667E-1,2.24E2,2.00001E0,1.3E2,4E3,2.00001E0,2.00001E0,-1.329978E-2,2.00001E0,-1.5205986E-2,-9.924001E-3,-2.2869762E-2,-1.7644443E-2,-2.1806335E-2,1.1701726E-2,-3.6651902E-3,-1.0925048E-2,-1.5475025E-3,-1.5557866E-2,4.0273257E-3,9.477105E-3,-2.4388373E-2,-1.33569995E-2,-9.150226E-3,-2.279679E-3,-1.5285698E-3,9.374595E-3,-1.6984101E-2,-7.979549E-3,1.0387876E-2,3.6884844E-3,1.4252591E-2,4.0920093E-3,1.8217448E-2,2.8023675E-2,2.7330483E-3,1.815708E-2,2.2071809E-2,3.1125769E-2],"split_indices":[2,2,2,2,7,1535,2,7,19,19,19,0,2,7,966,2,2,1,7,5,2,1535,5,2,19,7,12,19,23,0,1535,0,0,0,0,0,0,0,0,0,0,0,0,0,0,0,0,0,0,0,0,0,0,0,0,0,0,0,0,0,0],"split_type":[0,0,0,0,0,0,0,0,0,0,0,0,0,0,0,0,0,0,0,0,0,0,0,0,0,0,0,0,0,0,0,0,0,0,0,0,0,0,0,0,0,0,0,0,0,0,0,0,0,0,0,0,0,0,0,0,0,0,0,0,0],"sum_hessian":[8.668E3,5.329E3,3.339E3,2.614E3,2.715E3,2.264E3,1.075E3,9.19E2,1.695E3,6.79E2,2.036E3,4.48E2,1.816E3,8.49E2,2.26E2,1.63E2,7.56E2,1.46E2,1.549E3,6.3E1,6.16E2,2.94E2,1.742E3,2.82E2,1.66E2,7.81E2,1.035E3,2.16E2,6.33E2,1E0,2.25E2,8E1,8.3E1,3.31E2,4.25E2,1.45E2,1E0,3.86E2,1.163E3,5.2E1,1.1E1,2.24E2,3.92E2,1E2,1.94E2,4.47E2,1.295E3,1.99E2,8.3E1,5.4E1,1.12E2,3.11E2,4.7E2,9.35E2,1E2,3.3E1,1.83E2,5E1,5.83E2,4.7E1,1.78E2],"tree_param":{"num_deleted":"0","num_feature":"1538","num_nodes":"61","size_leaf_vector":"1"}},{"base_weights":[5.507851E-3,-2.3584871E-1,4.1856956E-1,-4.7699526E-1,-1.1767455E-1,2.6905495E-1,7.0666283E-1,-6.20576E-1,-3.787267E-1,1.4986764E-1,-2.0720151E-1,-8.623279E-2,3.603146E-1,9.464059E-1,6.262765E-1,-4.3642056E-1,-6.587011E-1,-3.3223328E-1,-5.8435434E-1,-3.0584238E-2,2.6892343E-1,-5.6260294E-1,-1.4808095E-1,5.472911E-2,-3.3013994E-1,4.4330364E-1,2.3040298E-1,8.357975E-1,1.0795448E0,5.542135E-1,8.8681245E-1,-3.6481093E-3,-1.369185E-2,-2.1853948E-2,-1.7158752E-2,-2.0240905E-2,-9.385592E-3,-2.4330717E-2,-1.6440323E-2,-1.0531743E-2,-2.4410071E-4,-1.4343195E-3,8.768885E-3,-2.2886045E-2,-1.4012891E-2,-7.5676558E-3,-1.4759847E-3,-4.150159E-3,7.2970856E-3,8.202442E-3,-1.09245675E-2,8.399537E-3,1.5306955E-2,1.2480502E-2,4.0864865E-3,2.5692914E-2,1.6132393E-3,6.9577787E-3,3.2758374E-2,2.5896112E-2,1.4713884E-2,-1.310028E-2,2.6906114E-2],"categories":[],"categories_nodes":[],"categories_segments":[],"categories_sizes":[],"default_left":[0,0,0,0,0,0,0,0,0,0,0,0,0,0,0,0,0,0,0,0,0,0,0,0,0,0,0,0,0,0,0,0,0,0,0,0,0,0,0,0,0,0,0,0,0,0,0,0,0,0,0,0,0,0,0,0,0,0,0,0,0,0,0],"id":4,"left_children":[1,3,5,7,9,11,13,15,17,19,21,23,25,27,29,31,33,35,37,39,41,43,45,47,49,51,53,55,57,59,61,-1,-1,-1,-1,-1,-1,-1,-1,-1,-1,-1,-1,-1,-1,-1,-1,-1,-1,-1,-1,-1,-1,-1,-1,-1,-1,-1,-1,-1,-1,-1,-1],"loss_changes":[8.6365814E2,1.5576706E2,1.3743182E2,2.513382E1,8.795973E1,6.8282425E1,2.0433105E1,4.83078E0,1.0035416E1,1.9794842E1,5.7719406E1,1.4836544E1,1.7956436E1,3.1032715E0,1.4903992E1,7.494011E-1,3.2263489E0,5.596306E0,1.1701889E0,2.6372871E0,4.122608E0,7.1413193E0,2.4297722E1,1.0005779E1,3.3430347E0,1.1017334E1,1.1394276E1,2.422676E0,1.0080719E0,1.2282059E1,2.7345276E0,0E0,0E0,0E0,0E0,0E0,0E0,0E0,0E0,0E0,0E0,0E0,0E0,0E0,0E0,0E0,0E0,0E0,0E0,0E0,0E0,0E0,0E0,0E0,0E0,0E0,0E0,0E0,0E0,0E0,0E0,0E0,0E0],"parents":[2147483647,0,0,1,1,2,2,3,3,4,4,5,5,6,6,7,7,8,8,9,9,10,10,11,11,12,12,13,13,14,14,15,15,16,16,17,17,18,18,19,19,20,20,21,21,22,22,23,23,24,24,25,25,26,26,27,27,28,28,29,29,30,30],"right_children":[2,4,6,8,10,12,14,16,18,20,22,24,26,28,30,32,34,36,38,40,42,44,46,48,50,52,54,56,58,60,62,-1,-1,-1,-1,-1,-1,-1,-1,-1,-1,-1,-1,-1,-1,-1,-1,-1,-1,-1,-1,-1,-1,-1,-1,-1,-1,-1,-1,-1,-1,-1,-1],"split_conditions":[1.72E2,8.6E1,2.7E2,6.0512424E1,1.3E2,2.00001E0,1.3E2,1.3E2,2.00001E0,1.15060356E2,2.00001E0,2.015E3,2.026E3,3.66E2,4.56E2,2.00001E0,5E1,2.00001E0,2.00001E0,2.00001E0,1.946E3,2.00001E0,1.22E2,1.952E3,2.00001E0,1.96E3,9E1,8.9E3,2.00001E0,2.00001E0,2.00001E0,-3.6481093E-3,-1.369185E-2,-2.1853948E-2,-1.7158752E-2,-2.0240905E-2,-9.385592E-3,-2.4330717E-2,-1.6440323E-2,-1.0531743E-2,-2.4410071E-4,-1.4343195E-3,8.768885E-3,-2.2886045E-2,-1.4012891E-2,-7.5676558E-3,-1.4759847E-3,-4.150159E-3,7.2970856E-3,8.202442E-3,-1.09245675E-2,8.399537E-3,1.5306955E-2,1.2480502E-2,4.0864865E-3,2.5692914E-2,1.6132393E-3,6.9577787E-3,3.2758374E-2,2.5896112E-2,1.4713884E-2,-1.310028E-2,2.6906114E-2],"split_indices":[2,2,2,2,7,1535,7,7,13,2,19,0,0,2,2,16,2,19,19,19,0,1535,2,0,24,0,7,11,1152,24,966,0,0,0,0,0,0,0,0,0,0,0,0,0,0,0,0,0,0,0,0,0,0,0,0,0,0,0,0,0,0,0,0],"split_type":[0,0,0,0,0,0,0,0,0,0,0,0,0,0,0,0,0,0,0,0,0,0,0,0,0,0,0,0,0,0,0,0,0,0,0,0,0,0,0,0,0,0,0,0,0,0,0,0,0,0,0,0,0,0,0,0,0,0,0,0,0,0,0],"sum_hessian":[8.661E3,5.467E3,3.194E3,1.797E3,3.67E3,2.104E3,1.09E3,7.28E2,1.069E3,9.2E2,2.75E3,4.3E2,1.674E3,2.71E2,8.19E2,1.27E2,6.01E2,8.74E2,1.95E2,3.66E2,5.54E2,3.91E2,2.359E3,2.73E2,1.57E2,1.02E3,6.54E2,1.52E2,1.19E2,6.44E2,1.75E2,8E0,1.19E2,3.29E2,2.72E2,4.5E1,8.29E2,2.4E1,1.71E2,2.3E1,3.43E2,3.8E1,5.16E2,1.24E2,2.67E2,1.148E3,1.211E3,1.35E2,1.38E2,8E0,1.49E2,2.98E2,7.22E2,2.19E2,4.35E2,1.48E2,4E0,2E0,1.17E2,1.08E2,5.36E2,1E0,1.74E2],"tree_param":{"num_deleted":"0","num_feature":"1538","num_nodes":"63","size_leaf_vector":"1"}},{"base_weights":[2.1547002E-3,-2.0085366E-1,4.5781523E-1,-3.696521E-1,-2.6758589E-2,3.2185587E-1,7.1473736E-1,-5.6710696E-1,-2.8405356E-1,2.6809752E-1,-1.3308552E-1,-2.1485101E-2,4.0494946E-1,9.296004E-1,6.3742256E-1,-3.4229255E-1,-6.086517E-1,-6.84559E-2,-3.5340628E-1,-2.1138635E-2,3.0355316E-1,9.655999E-2,-2.5580567E-1,2.5946993E-1,-2.4201791E-1,5.299582E-1,2.804309E-1,8.170769E-1,1.0274856E0,4.650153E-1,7.374441E-1,-2.895935E-3,-1.1034608E-2,-2.0763936E-2,-1.6094929E-2,-4.5148185E-3,1.0749352E-3,-2.0261608E-2,-9.514849E-3,-7.554444E-3,5.8388663E-3,7.2204545E-3,1.1353029E-2,-7.021102E-4,5.767296E-3,-1.537653E-2,-5.653791E-3,1.0413794E-2,-5.285895E-4,-9.903957E-3,2.353117E-3,1.6261216E-2,2.0893824E-3,1.4156884E-2,5.7554296E-3,2.525643E-2,6.5366314E-3,3.3467244E-3,3.1019174E-2,4.3248753E-3,1.6371254E-2,2.8907016E-2,2.0504931E-2],"categories":[],"categories_nodes":[],"categories_segments":[],"categories_sizes":[],"default_left":[0,0,0,0,0,0,0,0,0,0,0,0,0,0,0,0,0,0,0,0,0,0,0,0,0,1,0,0,0,1,0,0,0,0,0,0,0,0,0,0,0,0,0,0,0,0,0,0,0,0,0,0,0,0,0,0,0,0,0,0,0,0,0],"id":5,"left_children":[1,3,5,7,9,11,13,15,17,19,21,23,25,27,29,31,33,35,37,39,41,43,45,47,49,51,53,55,57,59,61,-1,-1,-1,-1,-1,-1,-1,-1,-1,-1,-1,-1,-1,-1,-1,-1,-1,-1,-1,-1,-1,-1,-1,-1,-1,-1,-1,-1,-1,-1,-1,-1],"loss_changes":[7.9774445E2,1.7531282E2,9.2616455E1,5.1034607E1,9.214534E1,4.9649902E1,1.467395E1,8.337585E0,3.1599884E1,7.995102E0,6.0898106E1,2.1129128E1,2.165924E1,1.8149414E0,1.1366089E1,8.7418365E-1,4.2727356E0,4.4200344E0,1.8457916E1,4.329439E0,3.1761894E0,8.647816E0,2.4248787E1,3.6494226E0,5.4190807E0,3.8442688E0,1.1849735E1,1.5554657E0,6.273346E-1,6.4457703E0,4.5623627E0,0E0,0E0,0E0,0E0,0E0,0E0,0E0,0E0,0E0,0E0,0E0,0E0,0E0,0E0,0E0,0E0,0E0,0E0,0E0,0E0,0E0,0E0,0E0,0E0,0E0,0E0,0E0,0E0,0E0,0E0,0E0,0E0],"parents":[2147483647,0,0,1,1,2,2,3,3,4,4,5,5,6,6,7,7,8,8,9,9,10,10,11,11,12,12,13,13,14,14,15,15,16,16,17,17,18,18,19,19,20,20,21,21,22,22,23,23,24,24,25,25,26,26,27,27,28,28,29,29,30,30],"right_children":[2,4,6,8,10,12,14,16,18,20,22,24,26,28,30,32,34,36,38,40,42,44,46,48,50,52,54,56,58,60,62,-1,-1,-1,-1,-1,-1,-1,-1,-1,-1,-1,-1,-1,-1,-1,-1,-1,-1,-1,-1,-1,-1,-1,-1,-1,-1,-1,-1,-1,-1,-1,-1],"split_conditions":[1.88E2,1.104893E2,2.8786478E2,6.6E1,1.3E2,2.00001E0,1.3E2,2E1,1.3E2,2.00001E0,7.6E1,1.02E2,8.2E1,3.6E2,9.45E2,2.00001E0,5E1,9.110225E1,2.00001E0,4.37E2,1.54E2,1.45E2,2.00001E0,1.011895E0,1.125E3,5.1E3,1.3E2,1.011895E0,2.00001E0,4E0,2.00001E0,-2.895935E-3,-1.1034608E-2,-2.0763936E-2,-1.6094929E-2,-4.5148185E-3,1.0749352E-3,-2.0261608E-2,-9.514849E-3,-7.554444E-3,5.8388663E-3,7.2204545E-3,1.1353029E-2,-7.021102E-4,5.767296E-3,-1.537653E-2,-5.653791E-3,1.0413794E-2,-5.285895E-4,-9.903957E-3,2.353117E-3,1.6261216E-2,2.0893824E-3,1.4156884E-2,5.7554296E-3,2.525643E-2,6.5366314E-3,3.3467244E-3,3.1019174E-2,4.3248753E-3,1.6371254E-2,2.8907016E-2,2.0504931E-2],"split_indices":[2,2,2,2,7,1535,7,9,7,19,9,9,9,2,3,16,2,2,19,3,2,2,19,5,3,12,7,5,646,1,24,0,0,0,0,0,0,0,0,0,0,0,0,0,0,0,0,0,0,0,0,0,0,0,0,0,0,0,0,0,0,0,0],"split_type":[0,0,0,0,0,0,0,0,0,0,0,0,0,0,0,0,0,0,0,0,0,0,0,0,0,0,0,0,0,0,0,0,0,0,0,0,0,0,0,0,0,0,0,0,0,0,0,0,0,0,0,0,0,0,0,0,0,0,0,0,0,0,0],"sum_hessian":[8.622E3,5.965E3,2.657E3,3.028E3,2.937E3,1.739E3,9.18E2,9.14E2,2.114E3,7.78E2,2.159E3,3.39E2,1.4E3,2.4E2,6.78E2,1.44E2,7.7E2,5.15E2,1.599E3,8.5E1,6.93E2,7.52E2,1.407E3,1.49E2,1.9E2,6.97E2,7.03E2,1.16E2,1.24E2,2.51E2,4.27E2,1.4E1,1.3E2,3.53E2,4.17E2,2.88E2,2.27E2,1.6E2,1.439E3,4.1E1,4.4E1,3.79E2,3.14E2,3.34E2,4.18E2,2.91E2,1.116E3,1.13E2,3.6E1,1.49E2,4.1E1,6.79E2,1.8E1,2.21E2,4.82E2,1.11E2,5E0,1E0,1.23E2,5.1E1,2E2,7.9E1,3.48E2],"tree_param":{"num_deleted":"0","num_feature":"1538","num_nodes":"63","size_leaf_vector":"1"}},{"base_weights":[3.506636E-3,-2.2732264E-1,3.951478E-1,-4.1933995E-1,-9.544938E-2,2.2611354E-1,6.224749E-1,-5.663558E-1,-3.2086352E-1,1.8446505E-1,-1.8590607E-1,-1.1259204E-1,3.152505E-1,9.186128E-1,5.625934E-1,-3.8946918E-1,-6.099006E-1,-2.6862064E-1,-5.290154E-1,6.356408E-2,2.6553166E-1,2.3122472E-3,-3.0381233E-1,1.0524953E-1,-2.9726607E-1,4.595301E-1,2.1186972E-1,-1.2791762E-2,9.2645085E-1,2.701464E-1,6.2652135E-1,1.6821478E-3,-1.2082407E-2,-2.0859556E-2,-1.6093899E-2,-1.2889202E-2,-6.532321E-3,-1.6293364E-2,5.0299023E-3,5.17593E-3,-1.522021E-3,-5.052186E-3,8.835445E-3,-2.3326552E-3,5.3931996E-3,-1.4364447E-2,-6.706019E-3,6.464658E-4,1.4018984E-2,1.2480981E-2,-1.0182623E-2,1.2414162E-2,1.6873814E-2,3.2817663E-3,1.0877079E-2,2.2170713E-2,2.9647266E-2,-3.800476E-3,1.1768304E-2,1.6536087E-2,2.4833253E-2],"categories":[],"categories_nodes":[],"categories_segments":[],"categories_sizes":[],"default_left":[0,0,0,0,0,0,0,0,0,0,0,0,0,0,0,0,0,1,1,0,0,0,0,0,0,0,0,0,0,0,0,0,0,0,0,0,0,0,0,0,0,0,0,0,0,0,0,0,0,0,0,0,0,0,0,0,0,0,0,0,0],"id":6,"left_children":[1,3,5,7,9,11,13,15,17,19,21,23,25,27,29,31,33,35,37,39,41,43,45,47,49,51,53,-1,55,57,59,-1,-1,-1,-1,-1,-1,-1,-1,-1,-1,-1,-1,-1,-1,-1,-1,-1,-1,-1,-1,-1,-1,-1,-1,-1,-1,-1,-1,-1,-1],"loss_changes":[7.7718756E2,1.3692636E2,1.2236157E2,3.1697968E1,8.126128E1,5.5285355E1,2.358258E1,6.5560303E0,1.4223038E1,7.6671295E0,5.3816597E1,1.5399027E1,2.1515533E1,2.7881165E0,2.1012787E1,1.0696774E0,4.055603E0,8.573708E0,2.6837845E0,3.9444432E0,5.948166E0,1.3299253E1,2.0839905E1,5.323403E0,6.365467E0,2.6099472E0,1.3025383E1,0E0,1.8870544E0,9.984994E0,1.362561E1,0E0,0E0,0E0,0E0,0E0,0E0,0E0,0E0,0E0,0E0,0E0,0E0,0E0,0E0,0E0,0E0,0E0,0E0,0E0,0E0,0E0,0E0,0E0,0E0,0E0,0E0,0E0,0E0,0E0,0E0],"parents":[2147483647,0,0,1,1,2,2,3,3,4,4,5,5,6,6,7,7,8,8,9,9,10,10,11,11,12,12,13,13,14,14,15,15,16,16,17,17,18,18,19,19,20,20,21,21,22,22,23,23,24,24,25,25,26,26,28,28,29,29,30,30],"right_children":[2,4,6,8,10,12,14,16,18,20,22,24,26,28,30,32,34,36,38,40,42,44,46,48,50,52,54,-1,56,58,60,-1,-1,-1,-1,-1,-1,-1,-1,-1,-1,-1,-1,-1,-1,-1,-1,-1,-1,-1,-1,-1,-1,-1,-1,-1,-1,-1,-1,-1,-1],"split_conditions":[1.72E2,9.4E1,2.5E2,6.6E1,1.3E2,2.00001E0,2.00001E0,1.3E2,2.00001E0,1.26E2,8.4E1,1.02E2,6.7E1,2.00001E0,2.00001E0,2.00001E0,5E1,6.579438E-1,4E0,9E1,1.951E3,1.45E2,2.00001E0,1.976E3,2.00001E0,2.18E2,2.00001E0,-1.2791762E-2,1.28E3,3.0018375E0,3.85E2,1.6821478E-3,-1.2082407E-2,-2.0859556E-2,-1.6093899E-2,-1.2889202E-2,-6.532321E-3,-1.6293364E-2,5.0299023E-3,5.17593E-3,-1.522021E-3,-5.052186E-3,8.835445E-3,-2.3326552E-3,5.3931996E-3,-1.4364447E-2,-6.706019E-3,6.464658E-4,1.4018984E-2,1.2480981E-2,-1.0182623E-2,1.2414162E-2,1.6873814E-2,3.2817663E-3,1.0877079E-2,2.2170713E-2,2.9647266E-2,-3.800476E-3,1.1768304E-2,1.6536087E-2,2.4833253E-2],"split_indices":[2,2,2,2,7,1535,6,7,13,2,9,9,9,338,1535,1435,2,5,1,7,0,2,1535,0,17,2,1533,0,3,1,2,0,0,0,0,0,0,0,0,0,0,0,0,0,0,0,0,0,0,0,0,0,0,0,0,0,0,0,0,0,0],"split_type":[0,0,0,0,0,0,0,0,0,0,0,0,0,0,0,0,0,0,0,0,0,0,0,0,0,0,0,0,0,0,0,0,0,0,0,0,0,0,0,0,0,0,0,0,0,0,0,0,0,0,0,0,0,0,0,0,0,0,0,0,0],"sum_hessian":[8.595E3,5.408E3,3.187E3,2.201E3,3.207E3,1.829E3,1.358E3,8.81E2,1.32E3,7.83E2,2.424E3,3.81E2,1.448E3,2.26E2,1.132E3,1.76E2,7.05E2,1.057E3,2.63E2,3.15E2,4.68E2,9.34E2,1.49E3,1.75E2,2.06E2,6.03E2,8.45E2,1E0,2.25E2,2.04E2,9.28E2,5E0,1.71E2,3.22E2,3.83E2,2.52E2,8.05E2,2.58E2,5E0,1.61E2,1.54E2,2.9E1,4.39E2,6.44E2,2.9E2,4.67E2,1.023E3,1.43E2,3.2E1,1.1E1,1.95E2,4.21E2,1.82E2,5.04E2,3.41E2,5.9E1,1.66E2,4.8E1,1.56E2,6.78E2,2.5E2],"tree_param":{"num_deleted":"0","num_feature":"1538","num_nodes":"61","size_leaf_vector":"1"}},{"base_weights":[-1.2144078E-4,-3.198138E-1,1.6779323E-1,-4.4734508E-1,-1.9553563E-1,7.104408E-2,4.398931E-1,-5.486448E-1,-3.7999326E-1,-9.540382E-3,-2.531665E-1,-2.6038015E-1,1.569475E-1,8.212521E-1,3.639429E-1,-7.404456E-1,-5.050549E-1,6.162279E-1,-3.8521585E-1,2.9321084E-2,-2.3452837E-2,-5.563898E-1,-2.1997668E-1,-3.229931E-2,-3.9522964E-1,6.1807107E-2,3.5135743E-1,-1.6973905E-2,8.349402E-1,4.5602676E-1,1.24431126E-1,-4.797115E-3,-2.250217E-2,-1.9311884E-2,-1.33413635E-2,2.2498025E-2,8.31337E-3,-1.6722547E-2,-1.059096E-2,-2.0396444E-3,1.9187278E-3,-2.4437863E-2,-1.4657917E-2,2.490294E-2,-6.8061827E-3,-8.337543E-3,5.8594026E-4,-1.9871186E-2,-9.195682E-3,1.4355279E-2,4.4489364E-4,1.5091753E-3,1.1624072E-2,-1.5963735E-2,2.5282674E-2,6.647804E-3,1.560217E-2,4.8620094E-4,1.1387981E-2],"categories":[],"categories_nodes":[],"categories_segments":[],"categories_sizes":[],"default_left":[0,0,0,1,0,0,0,0,0,0,0,0,0,0,1,0,0,0,0,0,0,0,0,0,0,0,0,0,0,0,0,0,0,0,0,0,0,0,0,0,0,0,0,0,0,0,0,0,0,0,0,0,0,0,0,0,0,0,0],"id":7,"left_children":[1,3,5,7,9,11,13,15,17,19,21,23,25,27,29,31,33,35,37,-1,39,41,43,45,47,49,51,-1,53,55,57,-1,-1,-1,-1,-1,-1,-1,-1,-1,-1,-1,-1,-1,-1,-1,-1,-1,-1,-1,-1,-1,-1,-1,-1,-1,-1,-1,-1],"loss_changes":[4.639115E2,4.70802E1,1.4912865E2,9.8072815E0,1.6172653E1,1.1907591E2,4.2742065E1,4.508606E0,4.841919E0,4.9383836E0,1.1471252E1,2.6468662E1,6.1404297E1,5.142975E0,2.7313705E1,4.7246552E-1,3.7220001E0,1.889348E-2,4.6858215E0,0E0,1.3824177E0,1.5799866E0,7.719387E0,4.0919456E0,1.2617294E1,4.3665962E1,1.1841263E1,0E0,3.0554504E0,1.3337662E1,9.548788E0,0E0,0E0,0E0,0E0,0E0,0E0,0E0,0E0,0E0,0E0,0E0,0E0,0E0,0E0,0E0,0E0,0E0,0E0,0E0,0E0,0E0,0E0,0E0,0E0,0E0,0E0,0E0,0E0],"parents":[2147483647,0,0,1,1,2,2,3,3,4,4,5,5,6,6,7,7,8,8,9,9,10,10,11,11,12,12,13,13,14,14,15,15,16,16,17,17,18,18,20,20,21,21,22,22,23,23,24,24,25,25,26,26,28,28,29,29,30,30],"right_children":[2,4,6,8,10,12,14,16,18,20,22,24,26,28,30,32,34,36,38,-1,40,42,44,46,48,50,52,-1,54,56,58,-1,-1,-1,-1,-1,-1,-1,-1,-1,-1,-1,-1,-1,-1,-1,-1,-1,-1,-1,-1,-1,-1,-1,-1,-1,-1,-1,-1],"split_conditions":[1.332E2,9.24E1,1.1E3,6.579438E-1,2.7E1,2.00001E0,2.00001E0,2.00001E0,2.00001E0,2.00001E0,2.00001E0,9.5E1,6E0,2.00001E0,3.1E3,9.5E1,4.92E1,1.988E3,2.00001E0,2.9321084E-2,1.16E2,2.00001E0,2.00001E0,2.00001E0,2.00001E0,2.00001E0,2.00001E0,-1.6973905E-2,2.00001E0,2.00001E0,3E3,-4.797115E-3,-2.250217E-2,-1.9311884E-2,-1.33413635E-2,2.2498025E-2,8.31337E-3,-1.6722547E-2,-1.059096E-2,-2.0396444E-3,1.9187278E-3,-2.4437863E-2,-1.4657917E-2,2.490294E-2,-6.8061827E-3,-8.337543E-3,5.8594026E-4,-1.9871186E-2,-9.195682E-3,1.4355279E-2,4.4489364E-4,1.5091753E-3,1.1624072E-2,-1.5963735E-2,2.5282674E-2,6.647804E-3,1.560217E-2,4.8620094E-4,1.1387981E-2],"split_indices":[3,3,3,5,9,1535,6,20,381,723,19,9,8,13,12,12,3,0,1535,0,3,1535,724,20,19,24,19,0,1252,1535,3,0,0,0,0,0,0,0,0,0,0,0,0,0,0,0,0,0,0,0,0,0,0,0,0,0,0,0,0],"split_type":[0,0,0,0,0,0,0,0,0,0,0,0,0,0,0,0,0,0,0,0,0,0,0,0,0,0,0,0,0,0,0,0,0,0,0,0,0,0,0,0,0,0,0,0,0,0,0,0,0,0,0,0,0,0,0,0,0,0,0],"sum_hessian":[8.64E3,2.975E3,5.665E3,1.467E3,1.508E3,4.18E3,1.485E3,5.83E2,8.84E2,3.57E2,1.151E3,8.6E2,3.32E3,2.45E2,1.24E3,1.05E2,4.78E2,4E0,8.8E2,4E0,3.53E2,1.12E2,1.039E3,3.2E2,5.4E2,2.23E3,1.09E3,2E0,2.43E2,8.95E2,3.45E2,2E0,1.03E2,1.42E2,3.36E2,2E0,2E0,1.36E2,7.44E2,2.34E2,1.19E2,2.1E1,9.1E1,6E0,1.033E3,5.5E1,2.65E2,1.33E2,4.07E2,2.25E2,2.005E3,1.17E2,9.73E2,1E0,2.42E2,1.93E2,7.02E2,2.43E2,1.02E2],"tree_param":{"num_deleted":"0","num_feature":"1538","num_nodes":"59","size_leaf_vector":"1"}},{"base_weights":[1.6363988E-3,-3.0990222E-1,2.0404954E-1,-8.336061E-2,-3.7452307E-1,4.8858732E-2,3.7231368E-1,-2.6577365E-1,1.1133382E-2,-5.1891774E-1,-3.0107963E-1,3.013921E-1,-4.8850324E-2,7.869018E-1,3.2386217E-1,-4.1889682E-1,-2.0846534E-1,-2.2602521E-1,4.298127E-2,-1.812147E-1,-5.3717357E-1,-6.461421E-1,-2.553527E-1,6.1315775E-1,2.780023E-1,1.349994E-1,-1.7934899E-1,-1.2345285E-2,7.9309374E-1,4.92719E-2,3.928272E-1,5.3886506E-3,-1.2910201E-2,2.053748E-2,-6.5057096E-3,-8.435869E-3,1.2781637E-2,-4.8452797E-3,2.58719E-3,-6.663161E-3,2.5252695E-3,-1.816038E-2,-1.40706105E-2,-2.4914034E-2,-1.6962396E-2,-1.0063181E-3,-8.87662E-3,-1.2096862E-2,1.9229798E-2,1.1187796E-2,6.644688E-3,8.913256E-3,1.2185856E-3,-1.1359013E-2,-2.8623699E-3,-7.343831E-3,2.3941386E-2,2.1655437E-2,1.422089E-4,9.178968E-3,1.6141443E-2],"categories":[],"categories_nodes":[],"categories_segments":[],"categories_sizes":[],"default_left":[1,0,0,1,1,0,0,1,1,0,0,0,0,0,0,0,0,0,0,0,1,0,0,0,0,0,0,0,0,0,0,0,0,0,0,0,0,0,0,0,0,0,0,0,0,0,0,0,0,0,0,0,0,0,0,0,0,0,0,0,0],"id":8,"left_children":[1,3,5,7,9,11,13,15,17,19,21,23,25,27,29,31,33,35,37,39,41,43,45,47,49,51,53,-1,55,57,59,-1,-1,-1,-1,-1,-1,-1,-1,-1,-1,-1,-1,-1,-1,-1,-1,-1,-1,-1,-1,-1,-1,-1,-1,-1,-1,-1,-1,-1,-1],"loss_changes":[5.42312E2,4.9552124E1,1.3610913E2,1.2982372E1,2.7787567E1,6.695745E1,4.9983765E1,2.1679077E0,3.7635562E0,5.371048E0,2.7431839E1,5.3496857E0,4.6976837E1,2.2631378E0,4.2418762E1,5.498781E-1,1.5648508E0,2.2423606E0,3.8972936E0,5.2873945E-1,3.6235046E0,2.56604E0,1.389006E1,1.7296371E0,3.7046814E0,1.2426704E1,1.911663E1,0E0,1.5317688E0,1.3504429E1,2.2427246E1,0E0,0E0,0E0,0E0,0E0,0E0,0E0,0E0,0E0,0E0,0E0,0E0,0E0,0E0,0E0,0E0,0E0,0E0,0E0,0E0,0E0,0E0,0E0,0E0,0E0,0E0,0E0,0E0,0E0,0E0],"parents":[2147483647,0,0,1,1,2,2,3,3,4,4,5,5,6,6,7,7,8,8,9,9,10,10,11,11,12,12,13,13,14,14,15,15,16,16,17,17,18,18,19,19,20,20,21,21,22,22,23,23,24,24,25,25,26,26,28,28,29,29,30,30],"right_children":[2,4,6,8,10,12,14,16,18,20,22,24,26,28,30,32,34,36,38,40,42,44,46,48,50,52,54,-1,56,58,60,-1,-1,-1,-1,-1,-1,-1,-1,-1,-1,-1,-1,-1,-1,-1,-1,-1,-1,-1,-1,-1,-1,-1,-1,-1,-1,-1,-1,-1,-1],"split_conditions":[2.5021808E0,1.3E2,3.7635665E0,2E0,2E0,1.3E2,2.00001E0,7.684108E-1,1E0,1.3E1,2.00001E0,2.00001E0,8.7E1,2.00001E0,2.00001E0,2.00001E0,2.00001E0,2.0604234E0,2.00001E0,1.4E3,6.801667E-1,2.00001E0,3.2E1,2.5841727E0,5.1E1,4.5E1,2.00001E0,-1.2345285E-2,7.8245723E-1,2.00001E0,4.679695E0,5.3886506E-3,-1.2910201E-2,2.053748E-2,-6.5057096E-3,-8.435869E-3,1.2781637E-2,-4.8452797E-3,2.58719E-3,-6.663161E-3,2.5252695E-3,-1.816038E-2,-1.40706105E-2,-2.4914034E-2,-1.6962396E-2,-1.0063181E-3,-8.87662E-3,-1.2096862E-2,1.9229798E-2,1.1187796E-2,6.644688E-3,8.913256E-3,1.2185856E-3,-1.1359013E-2,-2.8623699E-3,-7.343831E-3,2.3941386E-2,2.1655437E-2,1.422089E-4,9.178968E-3,1.6141443E-2],"split_indices":[1,7,1,1,1,7,6,5,5,9,19,17,9,13,1535,6,723,1,20,10,5,1535,9,1,9,9,1535,0,5,17,1,0,0,0,0,0,0,0,0,0,0,0,0,0,0,0,0,0,0,0,0,0,0,0,0,0,0,0,0,0,0],"split_type":[0,0,0,0,0,0,0,0,0,0,0,0,0,0,0,0,0,0,0,0,0,0,0,0,0,0,0,0,0,0,0,0,0,0,0,0,0,0,0,0,0,0,0,0,0,0,0,0,0,0,0,0,0,0,0,0,0,0,0,0,0],"sum_hessian":[8.598E3,3.386E3,5.212E3,7.52E2,2.634E3,2.712E3,2.5E3,2.56E2,4.96E2,8.86E2,1.748E3,7.56E2,1.956E3,2.6E2,2.24E3,6.8E1,1.88E2,5.8E1,4.38E2,4.6E1,8.4E2,2.03E2,1.545E3,5.1E1,7.05E2,8.12E2,1.144E3,1E0,2.59E2,4.5E2,1.79E3,1E0,6.7E1,1E0,1.87E2,5.4E1,4E0,7.6E1,3.62E2,4E1,6E0,4.16E2,4.24E2,5.9E1,1.44E2,2.39E2,1.306E3,1E0,5E1,2.61E2,4.44E2,2.98E2,5.14E2,3.38E2,8.06E2,1E0,2.58E2,2.7E1,4.23E2,1.122E3,6.68E2],"tree_param":{"num_deleted":"0","num_feature":"1538","num_nodes":"61","size_leaf_vector":"1"}},{"base_weights":[-1.3838505E-3,-2.0787509E-1,3.7192035E-1,-3.7545553E-1,-7.375402E-2,2.5346428E-1,6.506377E-1,-5.2899265E-1,-2.8428274E-1,1.7571159E-1,-1.5676911E-1,4.206562E-1,1.2628952E-1,8.459238E-1,5.816005E-1,-3.4650782E-1,-5.725962E-1,-4.955157E-1,-2.2561441E-1,1.977188E-1,-1.3111305E-1,1.6929876E-2,-2.5792643E-1,3.4568378E-1,5.1130277E-1,6.9201875E-1,8.9219846E-2,6.888532E-1,9.191051E-1,8.8430214E-1,5.206744E-1,4.4804383E-3,-1.0588634E-2,-7.299659E-3,-1.7689591E-2,-1.616614E-2,-1.0140934E-2,-2.7867435E-3,-8.523694E-3,2.265494E-3,7.841516E-3,9.96591E-3,-7.074313E-3,-2.5983637E-3,4.1095535E-3,6.4734346E-3,-8.257513E-3,1.2588315E-2,7.930246E-3,1.9187156E-2,1.3815269E-2,-1.8522643E-3,2.1405466E-2,9.763196E-3,1.6934348E-4,2.160628E-2,2.4222105E-3,-3.808894E-3,2.7797299E-2,4.654884E-5,2.6767224E-2,1.3292687E-2,2.1986669E-2],"categories":[],"categories_nodes":[],"categories_segments":[],"categories_sizes":[],"default_left":[0,0,0,0,0,0,0,0,0,1,0,0,0,0,0,0,0,0,0,0,0,0,0,0,0,0,0,0,0,0,0,0,0,0,0,0,0,0,0,0,0,0,0,0,0,0,0,0,0,0,0,0,0,0,0,0,0,0,0,0,0,0,0],"id":9,"left_children":[1,3,5,7,9,11,13,15,17,19,21,23,25,27,29,31,33,35,37,39,41,43,45,47,49,51,53,55,57,59,61,-1,-1,-1,-1,-1,-1,-1,-1,-1,-1,-1,-1,-1,-1,-1,-1,-1,-1,-1,-1,-1,-1,-1,-1,-1,-1,-1,-1,-1,-1,-1,-1],"loss_changes":[6.6230634E2,1.2430992E2,1.0086334E2,3.4271667E1,6.3688274E1,4.5640198E1,1.1803589E1,7.082245E0,1.9034904E1,5.211731E0,4.054049E1,6.1299286E0,2.5565302E1,2.079605E0,1.2025101E1,6.2490654E-1,3.995819E0,2.1051712E0,9.377571E0,5.5585365E0,2.6007175E0,1.05780115E1,1.2024483E1,2.9619102E0,2.4288483E0,1.2593117E0,2.2662096E1,1.4482307E0,1.3525391E0,7.835083E-1,8.994232E0,0E0,0E0,0E0,0E0,0E0,0E0,0E0,0E0,0E0,0E0,0E0,0E0,0E0,0E0,0E0,0E0,0E0,0E0,0E0,0E0,0E0,0E0,0E0,0E0,0E0,0E0,0E0,0E0,0E0,0E0,0E0,0E0],"parents":[2147483647,0,0,1,1,2,2,3,3,4,4,5,5,6,6,7,7,8,8,9,9,10,10,11,11,12,12,13,13,14,14,15,15,16,16,17,17,18,18,19,19,20,20,21,21,22,22,23,23,24,24,25,25,26,26,27,27,28,28,29,29,30,30],"right_children":[2,4,6,8,10,12,14,16,18,20,22,24,26,28,30,32,34,36,38,40,42,44,46,48,50,52,54,56,58,60,62,-1,-1,-1,-1,-1,-1,-1,-1,-1,-1,-1,-1,-1,-1,-1,-1,-1,-1,-1,-1,-1,-1,-1,-1,-1,-1,-1,-1,-1,-1,-1,-1],"split_conditions":[1.75E2,9.8E1,2.8786478E2,6.6E1,1.3E2,7.5E1,1.3E2,3E1,2.00001E0,7.6E1,7.9E1,2.2E2,2.00001E0,3.37E2,2.00001E0,2.00001E0,2.00001E0,2.0499156E0,4.5E1,1.26E2,2.00001E0,1.37E2,2.00001E0,3.7E1,1.3E2,1.753665E2,1.3E2,8.9E3,2.00001E0,2.00001E0,4.56E2,4.4804383E-3,-1.0588634E-2,-7.299659E-3,-1.7689591E-2,-1.616614E-2,-1.0140934E-2,-2.7867435E-3,-8.523694E-3,2.265494E-3,7.841516E-3,9.96591E-3,-7.074313E-3,-2.5983637E-3,4.1095535E-3,6.4734346E-3,-8.257513E-3,1.2588315E-2,7.930246E-3,1.9187156E-2,1.3815269E-2,-1.8522643E-3,2.1405466E-2,9.763196E-3,1.6934348E-4,2.160628E-2,2.4222105E-3,-3.808894E-3,2.7797299E-2,4.654884E-5,2.6767224E-2,1.3292687E-2,2.1986669E-2],"split_indices":[2,2,2,2,7,9,7,9,14,9,9,2,17,2,24,381,24,1,9,2,17,2,17,9,7,2,7,11,1066,100,2,0,0,0,0,0,0,0,0,0,0,0,0,0,0,0,0,0,0,0,0,0,0,0,0,0,0,0,0,0,0,0,0],"split_type":[0,0,0,0,0,0,0,0,0,0,0,0,0,0,0,0,0,0,0,0,0,0,0,0,0,0,0,0,0,0,0,0,0,0,0,0,0,0,0,0,0,0,0,0,0,0,0,0,0,0,0,0,0,0,0,0,0,0,0,0,0,0,0],"sum_hessian":[8.59E3,5.531E3,3.059E3,2.458E3,3.073E3,2.148E3,9.11E2,9.14E2,1.544E3,7.67E2,2.306E3,9.27E2,1.221E3,2.35E2,6.76E2,1.78E2,7.36E2,3.34E2,1.21E3,7.16E2,5.1E1,8.49E2,1.457E3,5.1E2,4.17E2,7.4E1,1.147E3,7.8E1,1.57E2,1.11E2,5.65E2,2E0,1.76E2,3.7E1,6.99E2,2.6E2,7.4E1,3.71E2,8.39E2,2.46E2,4.7E2,9E0,4.2E1,4.56E2,3.93E2,5.1E1,1.406E3,2.65E2,2.45E2,1.15E2,3.02E2,2E0,7.2E1,2.99E2,8.48E2,7.4E1,4E0,1E0,1.56E2,1E0,1.1E2,4.16E2,1.49E2],"tree_param":{"num_deleted":"0","num_feature":"1538","num_nodes":"63","size_leaf_vector":"1"}},{"base_weights":[4.3375287E-3,-2.350578E-1,3.0936626E-1,-4.0313274E-1,-1.3602816E-1,1.3658914E-1,5.254105E-1,-5.4344875E-1,-3.349674E-1,-4.8716316E-1,-8.668111E-2,-1.547566E-1,2.1500684E-1,4.3698907E-1,7.1625054E-1,-3.0071414E-1,-5.712382E-1,-2.9198316E-1,-5.151305E-1,-6.914752E-1,-4.069579E-1,1.1782896E-1,-1.5683468E-1,8.227514E-2,-2.9507527E-1,3.6516705E-1,1.1961493E-1,1.4868698E-1,5.0147694E-1,9.2554605E-1,6.593668E-1,-1.5066264E-2,-6.5913424E-3,1.7687073E-2,-1.7237935E-2,2.6218219E-2,-8.966608E-3,-1.5619343E-2,1.1297206E-2,-1.5787156E-2,-2.3359144E-2,-1.8143969E-2,-9.537663E-3,2.4983461E-4,6.6408585E-3,-1.5046907E-3,-7.286101E-3,4.945869E-3,-6.684896E-3,-1.7200895E-2,-6.410173E-3,1.1571019E-2,1.1022906E-3,1.5184281E-2,2.3758651E-3,9.820088E-3,-1.9946506E-3,1.711391E-2,1.18609425E-2,4.742889E-3,2.8145319E-2,1.6810942E-2,2.3443118E-2],"categories":[],"categories_nodes":[],"categories_segments":[],"categories_sizes":[],"default_left":[0,0,0,0,0,0,0,0,0,0,0,0,0,0,0,0,0,0,0,0,1,0,0,0,0,0,0,0,0,0,0,0,0,0,0,0,0,0,0,0,0,0,0,0,0,0,0,0,0,0,0,0,0,0,0,0,0,0,0,0,0,0,0],"id":10,"left_children":[1,3,5,7,9,11,13,15,17,19,21,23,25,27,29,31,33,35,37,39,41,43,45,47,49,51,53,55,57,59,61,-1,-1,-1,-1,-1,-1,-1,-1,-1,-1,-1,-1,-1,-1,-1,-1,-1,-1,-1,-1,-1,-1,-1,-1,-1,-1,-1,-1,-1,-1,-1,-1],"loss_changes":[6.2872296E2,8.023773E1,1.4125015E2,1.6919647E1,5.2581306E1,4.81255E1,2.8069641E1,3.7608337E0,9.189072E0,5.8473053E0,3.823918E1,1.4891486E1,2.3719948E1,2.13434E1,5.7115784E0,9.0159893E-1,2.3745117E0,8.117302E0,1.3319054E0,1.0881081E0,4.5813675E0,7.7186403E0,1.8197186E1,4.2447615E0,6.243099E0,4.3287888E0,1.5833116E1,8.171241E0,6.6628876E0,9.276962E-1,4.649994E0,0E0,0E0,0E0,0E0,0E0,0E0,0E0,0E0,0E0,0E0,0E0,0E0,0E0,0E0,0E0,0E0,0E0,0E0,0E0,0E0,0E0,0E0,0E0,0E0,0E0,0E0,0E0,0E0,0E0,0E0,0E0,0E0],"parents":[2147483647,0,0,1,1,2,2,3,3,4,4,5,5,6,6,7,7,8,8,9,9,10,10,11,11,12,12,13,13,14,14,15,15,16,16,17,17,18,18,19,19,20,20,21,21,22,22,23,23,24,24,25,25,26,26,27,27,28,28,29,29,30,30],"right_children":[2,4,6,8,10,12,14,16,18,20,22,24,26,28,30,32,34,36,38,40,42,44,46,48,50,52,54,56,58,60,62,-1,-1,-1,-1,-1,-1,-1,-1,-1,-1,-1,-1,-1,-1,-1,-1,-1,-1,-1,-1,-1,-1,-1,-1,-1,-1,-1,-1,-1,-1,-1,-1],"split_conditions":[1.55E2,8.6E1,2.3E2,5.6E1,2.00001E0,2.00001E0,3.6E2,1.4E1,2.00001E0,2.00001E0,1.3E2,9.1E1,6.2E1,2.00001E0,2.00001E0,3.3E1,2.00001E0,2.00001E0,2.32E4,2.00001E0,6.801667E-1,1.15060356E2,8.8E1,2.00001E0,2.00001E0,4.7E3,2.00001E0,1.17E2,1.26E2,2.00001E0,4.56E2,-1.5066264E-2,-6.5913424E-3,1.7687073E-2,-1.7237935E-2,2.6218219E-2,-8.966608E-3,-1.5619343E-2,1.1297206E-2,-1.5787156E-2,-2.3359144E-2,-1.8143969E-2,-9.537663E-3,2.4983461E-4,6.6408585E-3,-1.5046907E-3,-7.286101E-3,4.945869E-3,-6.684896E-3,-1.7200895E-2,-6.410173E-3,1.1571019E-2,1.1022906E-3,1.5184281E-2,2.3758651E-3,9.820088E-3,-1.9946506E-3,1.711391E-2,1.18609425E-2,4.742889E-3,2.8145319E-2,1.6810942E-2,2.3443118E-2],"split_indices":[2,2,2,2,19,1535,2,9,13,1535,7,9,9,1535,1530,2,696,723,12,4,5,2,9,4,19,12,24,9,9,1152,2,0,0,0,0,0,0,0,0,0,0,0,0,0,0,0,0,0,0,0,0,0,0,0,0,0,0,0,0,0,0,0,0],"split_type":[0,0,0,0,0,0,0,0,0,0,0,0,0,0,0,0,0,0,0,0,0,0,0,0,0,0,0,0,0,0,0,0,0,0,0,0,0,0,0,0,0,0,0,0,0,0,0,0,0,0,0,0,0,0,0,0,0,0,0,0,0,0,0],"sum_hessian":[8.608E3,4.823E3,3.785E3,1.787E3,3.036E3,2.104E3,1.681E3,5.82E2,1.205E3,3.73E2,2.663E3,4.46E2,1.658E3,1.151E3,5.3E2,6.1E1,5.21E2,9.75E2,2.3E2,1.03E2,2.7E2,6.8E2,1.983E3,1.66E2,2.8E2,6.43E2,1.015E3,2.11E2,9.4E2,1.1E2,4.2E2,1.6E1,4.5E1,1E0,5.2E2,5E0,9.7E2,2.29E2,1E0,3.8E1,6.5E1,8.2E1,1.88E2,3.31E2,3.49E2,8.86E2,1.097E3,1.31E2,3.5E1,6.2E1,2.18E2,6.05E2,3.8E1,9.5E1,9.2E2,1.15E2,9.6E1,5.67E2,3.73E2,2E0,1.08E2,2.35E2,1.85E2],"tree_param":{"num_deleted":"0","num_feature":"1538","num_nodes":"63","size_leaf_vector":"1"}},{"base_weights":[2.1793374E-3,-1.936289E-1,3.5672802E-1,-3.3787778E-1,-6.406252E-2,2.4540779E-1,6.2502885E-1,-4.8592916E-1,-2.553313E-1,1.786828E-1,-1.4594069E-1,4.1054112E-1,1.2033078E-1,5.367183E-1,7.770093E-1,-2.86142E-1,-5.2567536E-1,-8.2520716E-2,-3.1455445E-1,4.059561E-2,2.2275935E-1,2.0098574E-2,-2.4182016E-1,3.0310985E-1,4.7375777E-1,3.5692903E-1,3.5127338E-2,1.0274068E0,4.9007607E-1,-1.8241167E-2,7.830673E-1,-1.2807773E-2,-7.2888504E-3,-1.8384747E-2,-1.3534313E-2,2.6761007E-2,-2.877817E-3,-3.7494437E-3,-1.0545801E-2,4.696903E-3,-3.3335045E-3,1.0445478E-2,4.753381E-3,-1.6686101E-3,4.1934457E-3,7.999944E-3,-7.82721E-3,5.023211E-3,1.0498505E-2,1.9872325E-2,1.3233922E-2,2.513023E-2,9.592488E-3,1.8363059E-2,9.541307E-5,1.0329759E-2,3.193411E-2,9.370663E-3,1.7281376E-2,-1.4573808E-2,2.3652505E-2],"categories":[],"categories_nodes":[],"categories_segments":[],"categories_sizes":[],"default_left":[0,0,0,0,0,0,0,0,0,0,0,0,0,0,0,0,0,0,0,0,0,0,0,0,0,0,0,0,0,0,0,0,0,0,0,0,0,0,0,0,0,0,0,0,0,0,0,0,0,0,0,0,0,0,0,0,0,0,0,0,0],"id":11,"left_children":[1,3,5,7,9,11,13,15,17,19,21,23,25,27,29,31,33,35,37,39,41,43,45,47,49,51,53,55,57,-1,59,-1,-1,-1,-1,-1,-1,-1,-1,-1,-1,-1,-1,-1,-1,-1,-1,-1,-1,-1,-1,-1,-1,-1,-1,-1,-1,-1,-1,-1,-1],"loss_changes":[6.0197125E2,1.0437959E2,9.198724E1,3.217633E1,5.8539665E1,4.5018463E1,1.1716003E1,7.353607E0,1.7362274E1,4.513157E0,3.506016E1,6.2403564E0,2.5045078E1,1.2656403E1,3.2450562E0,8.628473E-1,4.8354034E0,5.7690125E0,8.822372E0,3.2018676E0,4.486208E0,7.321021E0,1.3618294E1,2.171936E0,3.3393555E0,5.6126404E0,1.6863838E1,8.7402725E-1,7.8719025E0,0E0,2.616211E0,0E0,0E0,0E0,0E0,0E0,0E0,0E0,0E0,0E0,0E0,0E0,0E0,0E0,0E0,0E0,0E0,0E0,0E0,0E0,0E0,0E0,0E0,0E0,0E0,0E0,0E0,0E0,0E0,0E0,0E0],"parents":[2147483647,0,0,1,1,2,2,3,3,4,4,5,5,6,6,7,7,8,8,9,9,10,10,11,11,12,12,13,13,14,14,15,15,16,16,17,17,18,18,19,19,20,20,21,21,22,22,23,23,24,24,25,25,26,26,27,27,28,28,30,30],"right_children":[2,4,6,8,10,12,14,16,18,20,22,24,26,28,30,32,34,36,38,40,42,44,46,48,50,52,54,56,58,-1,60,-1,-1,-1,-1,-1,-1,-1,-1,-1,-1,-1,-1,-1,-1,-1,-1,-1,-1,-1,-1,-1,-1,-1,-1,-1,-1,-1,-1,-1,-1],"split_conditions":[1.75E2,1.01E2,2.92E2,6.7E1,1.3E2,7.4E1,2.03E3,1.9E1,4.5E1,1.416E2,7.9E1,2.04E2,1.3E2,2.00001E0,2.00001E0,4.2E1,5E1,2.00001E0,1.3E2,9E1,2.00001E0,1.45E2,2.00001E0,1.972E3,2.00001E0,2.00001E0,2.00001E0,1.901E3,5.856E2,-1.8241167E-2,2.00001E0,-1.2807773E-2,-7.2888504E-3,-1.8384747E-2,-1.3534313E-2,2.6761007E-2,-2.877817E-3,-3.7494437E-3,-1.0545801E-2,4.696903E-3,-3.3335045E-3,1.0445478E-2,4.753381E-3,-1.6686101E-3,4.1934457E-3,7.999944E-3,-7.82721E-3,5.023211E-3,1.0498505E-2,1.9872325E-2,1.3233922E-2,2.513023E-2,9.592488E-3,1.8363059E-2,9.541307E-5,1.0329759E-2,3.193411E-2,9.370663E-3,1.7281376E-2,-1.4573808E-2,2.3652505E-2],"split_indices":[2,2,2,2,7,9,3,9,9,3,9,2,7,17,58,2,2,723,7,7,13,2,17,0,16,17,17,0,3,0,966,0,0,0,0,0,0,0,0,0,0,0,0,0,0,0,0,0,0,0,0,0,0,0,0,0,0,0,0,0,0],"split_type":[0,0,0,0,0,0,0,0,0,0,0,0,0,0,0,0,0,0,0,0,0,0,0,0,0,0,0,0,0,0,0,0,0,0,0,0,0,0,0,0,0,0,0,0,0,0,0,0,0,0,0,0,0,0,0,0,0,0,0,0,0],"sum_hessian":[8.669E3,5.585E3,3.084E3,2.642E3,2.943E3,2.181E3,9.03E2,9.44E2,1.698E3,7.42E2,2.201E3,9.39E2,1.242E3,5.74E2,3.29E2,1.58E2,7.86E2,4.34E2,1.264E3,1.8E2,5.62E2,8.06E2,1.395E3,3.5E2,5.89E2,3.28E2,9.14E2,4.8E1,5.26E2,1E0,3.28E2,3.5E1,1.23E2,3.59E2,4.27E2,5E0,4.29E2,2.07E2,1.057E3,1.02E2,7.8E1,1.89E2,3.73E2,4.94E2,3.12E2,5E1,1.345E3,9.1E1,2.59E2,8.4E1,5.05E2,2.2E1,3.06E2,4.7E1,8.67E2,3E0,4.5E1,1.73E2,3.53E2,1E0,3.27E2],"tree_param":{"num_deleted":"0","num_feature":"1538","num_nodes":"61","size_leaf_vector":"1"}},{"base_weights":[4.2670313E-3,-2.2618024E-1,2.9265353E-1,-4.025259E-1,-1.4019161E-1,1.8490086E-1,5.736052E-1,-5.0074375E-1,-3.151707E-1,5.9387013E-2,-2.0524801E-1,3.9620388E-1,9.148713E-2,7.911081E-1,5.020105E-1,-3.4062132E-1,-5.393321E-1,7.977525E-1,-3.241339E-1,-8.99487E-2,1.3158968E-1,-8.2575336E-2,-3.050515E-1,3.2002202E-1,4.8125452E-1,3.1845495E-1,1.8094195E-2,6.9744253E-1,8.8893527E-1,3.509804E-1,6.079156E-1,-1.0416578E-2,9.340181E-3,-2.1908842E-2,-1.5327485E-2,9.805164E-3,2.7622508E-2,-4.765837E-3,-1.1100739E-2,-7.896898E-3,-1.3672857E-3,-3.8511178E-3,4.7005257E-3,-4.150582E-3,9.738754E-4,-4.922864E-4,-9.942171E-3,-1.8582953E-2,9.766479E-3,2.2548415E-2,1.3722926E-2,2.4745079E-2,8.614672E-3,1.2613866E-2,-8.7554404E-4,2.8436363E-2,1.9785108E-2,3.2117558E-3,2.683132E-2,2.7466603E-2,9.015388E-3,1.5159461E-2,2.2435913E-2],"categories":[],"categories_nodes":[],"categories_segments":[],"categories_sizes":[],"default_left":[0,0,0,0,0,0,0,0,0,0,0,0,0,0,0,1,0,0,0,0,0,0,0,0,0,0,0,0,0,0,0,0,0,0,0,0,0,0,0,0,0,0,0,0,0,0,0,0,0,0,0,0,0,0,0,0,0,0,0,0,0,0,0],"id":12,"left_children":[1,3,5,7,9,11,13,15,17,19,21,23,25,27,29,31,33,35,37,39,41,43,45,47,49,51,53,55,57,59,61,-1,-1,-1,-1,-1,-1,-1,-1,-1,-1,-1,-1,-1,-1,-1,-1,-1,-1,-1,-1,-1,-1,-1,-1,-1,-1,-1,-1,-1,-1,-1,-1],"loss_changes":[5.7725287E2,7.315399E1,1.1668826E2,1.3415497E1,4.217081E1,5.5034454E1,1.624939E1,4.407196E0,8.637856E0,8.627002E0,2.9958313E1,5.385803E0,3.2243805E1,1.789917E0,1.2694473E1,7.4043846E-1,2.8664398E0,1.04512215E-1,6.266678E0,1.994812E0,3.5363226E0,7.0626535E0,1.0263924E1,2.5591164E0,2.2454453E0,7.2598763E0,2.7862757E1,6.95549E-1,4.3613434E-1,9.269875E0,6.4137573E0,0E0,0E0,0E0,0E0,0E0,0E0,0E0,0E0,0E0,0E0,0E0,0E0,0E0,0E0,0E0,0E0,0E0,0E0,0E0,0E0,0E0,0E0,0E0,0E0,0E0,0E0,0E0,0E0,0E0,0E0,0E0,0E0],"parents":[2147483647,0,0,1,1,2,2,3,3,4,4,5,5,6,6,7,7,8,8,9,9,10,10,11,11,12,12,13,13,14,14,15,15,16,16,17,17,18,18,19,19,20,20,21,21,22,22,23,23,24,24,25,25,26,26,27,27,28,28,29,29,30,30],"right_children":[2,4,6,8,10,12,14,16,18,20,22,24,26,28,30,32,34,36,38,40,42,44,46,48,50,52,54,56,58,60,62,-1,-1,-1,-1,-1,-1,-1,-1,-1,-1,-1,-1,-1,-1,-1,-1,-1,-1,-1,-1,-1,-1,-1,-1,-1,-1,-1,-1,-1,-1,-1,-1],"split_conditions":[1.54E2,8.1E1,2.7E2,6.0145233E1,1.3E2,5.5E1,1.3E2,1.3E2,2.00001E0,1.188E2,9.6E1,2.02E2,1.3E2,3.6E2,9.45E2,3E0,2.00001E0,3.42E2,1.3E2,2.00001E0,2.00001E0,1.25E2,2.00001E0,2.00001E0,2.00001E0,2.00001E0,2.00001E0,2.00001E0,2.00001E0,2.00001E0,3.85E2,-1.0416578E-2,9.340181E-3,-2.1908842E-2,-1.5327485E-2,9.805164E-3,2.7622508E-2,-4.765837E-3,-1.1100739E-2,-7.896898E-3,-1.3672857E-3,-3.8511178E-3,4.7005257E-3,-4.150582E-3,9.738754E-4,-4.922864E-4,-9.942171E-3,-1.8582953E-2,9.766479E-3,2.2548415E-2,1.3722926E-2,2.4745079E-2,8.614672E-3,1.2613866E-2,-8.7554404E-4,2.8436363E-2,1.9785108E-2,3.2117558E-3,2.683132E-2,2.7466603E-2,9.015388E-3,1.5159461E-2,2.2435913E-2],"split_indices":[2,2,2,2,7,9,7,7,723,3,9,2,7,2,3,1,23,10,7,20,23,2,15,700,13,17,24,17,373,17,2,0,0,0,0,0,0,0,0,0,0,0,0,0,0,0,0,0,0,0,0,0,0,0,0,0,0,0,0,0,0,0,0],"split_type":[0,0,0,0,0,0,0,0,0,0,0,0,0,0,0,0,0,0,0,0,0,0,0,0,0,0,0,0,0,0,0,0,0,0,0,0,0,0,0,0,0,0,0,0,0,0,0,0,0,0,0,0,0,0,0,0,0,0,0,0,0,0,0],"sum_hessian":[8.684E3,4.827E3,3.857E3,1.581E3,3.246E3,2.789E3,1.068E3,7.42E2,8.39E2,7.98E2,2.448E3,8.54E2,1.935E3,2.62E2,8.06E2,1.46E2,5.96E2,6E0,8.33E2,2.6E2,5.38E2,1.099E3,1.349E3,4.53E2,4.01E2,4.72E2,1.463E3,1.38E2,1.24E2,3.34E2,4.72E2,1.45E2,1E0,7.4E1,5.22E2,2E0,4E0,1.82E2,6.51E2,5.2E1,2.08E2,4.7E1,4.91E2,7.4E2,3.59E2,1.13E2,1.236E3,2E0,4.51E2,3E1,3.71E2,2.6E1,4.46E2,1.53E2,1.31E3,1.5E1,1.23E2,1E0,1.23E2,2.6E1,3.08E2,2.75E2,1.97E2],"tree_param":{"num_deleted":"0","num_feature":"1538","num_nodes":"63","size_leaf_vector":"1"}},{"base_weights":[-7.969979E-3,-1.8234096E-1,3.3746085E-1,-2.9973552E-1,-4.0166233E-2,2.1583584E-1,5.5085194E-1,-4.5696813E-1,-2.3477058E-1,2.2018947E-1,-1.0952399E-1,-7.584947E-2,2.8586775E-1,7.55931E-1,4.851429E-1,-6.4989305E-1,-4.2598125E-1,-1.696093E-1,-3.9864266E-1,4.853144E-1,1.9540715E-1,2.1443489E-1,-1.5651828E-1,1.566412E-1,-2.0749986E-1,4.063111E-1,1.9373596E-1,6.553286E-1,8.7095547E-1,7.5353765E-1,4.3464658E-1,-4.3768594E-3,-2.0090314E-2,-1.5500877E-2,-1.0806271E-2,2.8946176E-2,-5.3215637E-3,-1.7804898E-2,-1.0596673E-2,2.6269179E-2,1.2818761E-2,-6.900916E-4,6.7049433E-3,-7.114628E-3,6.7810807E-3,-1.2698119E-2,-3.0693081E-3,2.1302903E-3,1.3572794E-2,1.5901746E-2,-7.414426E-3,1.704837E-2,1.1156482E-2,1.9962631E-2,4.953634E-3,2.0274594E-2,-8.700256E-4,1.7814022E-2,2.719772E-2,1.2952042E-3,2.2942118E-2,2.1192797E-2,1.1480501E-2],"categories":[],"categories_nodes":[],"categories_segments":[],"categories_sizes":[],"default_left":[0,0,0,0,0,0,0,0,0,0,0,0,0,0,0,0,0,0,0,0,1,0,0,0,0,0,0,0,0,0,0,0,0,0,0,0,0,0,0,0,0,0,0,0,0,0,0,0,0,0,0,0,0,0,0,0,0,0,0,0,0,0,0],"id":13,"left_children":[1,3,5,7,9,11,13,15,17,19,21,23,25,27,29,31,33,35,37,39,41,43,45,47,49,51,53,55,57,59,61,-1,-1,-1,-1,-1,-1,-1,-1,-1,-1,-1,-1,-1,-1,-1,-1,-1,-1,-1,-1,-1,-1,-1,-1,-1,-1,-1,-1,-1,-1,-1,-1],"loss_changes":[5.196324E2,9.567482E1,7.499112E1,3.1966614E1,4.6865753E1,3.7710022E1,1.3782593E1,5.2051086E0,2.3680504E1,3.492611E0,3.1227987E1,1.0989983E1,1.6433113E1,2.356903E0,1.0487732E1,1.1486893E0,4.5453033E0,1.4224495E1,5.3837585E0,6.67634E-1,3.0789528E0,1.4157314E0,2.5840294E1,3.2605836E0,6.82753E0,3.379799E0,1.1295244E1,1.9687576E0,5.974579E-1,9.614563E-1,9.248268E0,0E0,0E0,0E0,0E0,0E0,0E0,0E0,0E0,0E0,0E0,0E0,0E0,0E0,0E0,0E0,0E0,0E0,0E0,0E0,0E0,0E0,0E0,0E0,0E0,0E0,0E0,0E0,0E0,0E0,0E0,0E0,0E0],"parents":[2147483647,0,0,1,1,2,2,3,3,4,4,5,5,6,6,7,7,8,8,9,9,10,10,11,11,12,12,13,13,14,14,15,15,16,16,17,17,18,18,19,19,20,20,21,21,22,22,23,23,24,24,25,25,26,26,27,27,28,28,29,29,30,30],"right_children":[2,4,6,8,10,12,14,16,18,20,22,24,26,28,30,32,34,36,38,40,42,44,46,48,50,52,54,56,58,60,62,-1,-1,-1,-1,-1,-1,-1,-1,-1,-1,-1,-1,-1,-1,-1,-1,-1,-1,-1,-1,-1,-1,-1,-1,-1,-1,-1,-1,-1,-1,-1,-1],"split_conditions":[1.79E2,1.11245346E2,2.7E2,6.6E1,5E1,2.00001E0,1.3E2,2.00001E0,2.00001E0,2.00001E0,9E1,9.1E1,6.7E1,3.6E2,2.00001E0,1.4E1,4.8E1,2.00001E0,2.00001E0,2.00001E0,7.8245723E-1,1.09E2,2.00001E0,1.976E3,2.00001E0,2.00001E0,2.00001E0,8.9E3,2.00001E0,2.00001E0,2.00001E0,-4.3768594E-3,-2.0090314E-2,-1.5500877E-2,-1.0806271E-2,2.8946176E-2,-5.3215637E-3,-1.7804898E-2,-1.0596673E-2,2.6269179E-2,1.2818761E-2,-6.900916E-4,6.7049433E-3,-7.114628E-3,6.7810807E-3,-1.2698119E-2,-3.0693081E-3,2.1302903E-3,1.3572794E-2,1.5901746E-2,-7.414426E-3,1.704837E-2,1.1156482E-2,1.9962631E-2,4.953634E-3,2.0274594E-2,-8.700256E-4,1.7814022E-2,2.719772E-2,1.2952042E-3,2.2942118E-2,2.1192797E-2,1.1480501E-2],"split_indices":[2,2,2,2,9,1535,7,20,13,24,7,9,9,2,6,9,2,723,19,1285,5,9,19,0,17,24,17,11,19,383,24,0,0,0,0,0,0,0,0,0,0,0,0,0,0,0,0,0,0,0,0,0,0,0,0,0,0,0,0,0,0,0,0],"split_type":[0,0,0,0,0,0,0,0,0,0,0,0,0,0,0,0,0,0,0,0,0,0,0,0,0,0,0,0,0,0,0,0,0,0,0,0,0,0,0,0,0,0,0,0,0,0,0,0,0,0,0,0,0,0,0,0,0,0,0,0,0,0,0],"sum_hessian":[8.625E3,5.732E3,2.893E3,3.139E3,2.593E3,1.844E3,1.049E3,9.16E2,2.223E3,5.45E2,2.048E3,3.57E2,1.487E3,2.52E2,7.97E2,1.24E2,7.92E2,1.592E3,6.31E2,4.5E1,5E2,2.59E2,1.789E3,1.29E2,2.28E2,6.43E2,8.44E2,1.38E2,1.14E2,1.24E2,6.73E2,5E0,1.19E2,3.3E2,4.62E2,1E1,1.582E3,1.17E2,5.14E2,4E0,4.1E1,5.7E1,4.43E2,6E0,2.53E2,3.01E2,1.488E3,1.01E2,2.8E1,1.1E1,2.17E2,1.1E2,5.33E2,4.7E1,7.97E2,1.34E2,4E0,1.5E1,9.9E1,2E0,1.22E2,1.06E2,5.67E2],"tree_param":{"num_deleted":"0","num_feature":"1538","num_nodes":"63","size_leaf_vector":"1"}},{"base_weights":[-5.161927E-4,-1.5936169E-1,3.6404642E-1,-2.9004118E-1,-1.6250283E-2,2.5702354E-1,5.5732507E-1,-4.5507166E-1,-2.2442499E-1,1.9998358E-1,-9.504921E-2,4.0888715E-1,1.3654096E-1,7.9026586E-1,5.01115E-1,-2.6923272E-1,-4.979804E-1,-4.47672E-2,-2.8232935E-1,-3.8173478E-2,2.318171E-1,1.1499717E-1,-1.7759861E-1,3.3603463E-1,4.731859E-1,3.6656997E-1,6.212751E-2,7.2602147E-1,9.919291E-1,6.928573E-1,4.5282945E-1,-1.2375754E-3,-8.678982E-3,-1.9722316E-2,-1.4022247E-2,2.3156833E-2,-1.6535196E-3,-1.745338E-2,-7.3788175E-3,1.7129835E-3,-4.903673E-3,1.3674886E-3,7.823392E-3,9.378649E-4,5.8845105E-3,-1.2391934E-2,-3.6280388E-3,6.486818E-3,1.1858362E-2,2.258716E-2,1.3321841E-2,6.915966E-3,1.36295855E-2,5.053848E-3,-3.523317E-3,1.1305519E-2,2.2937955E-2,5.3692674E-3,3.0233355E-2,1.3154029E-2,2.234138E-2,3.4278838E-3,1.4525271E-2],"categories":[],"categories_nodes":[],"categories_segments":[],"categories_sizes":[],"default_left":[0,0,0,0,0,0,0,0,0,0,0,0,0,0,0,0,0,0,0,0,0,0,0,0,0,0,0,0,0,0,0,0,0,0,0,0,0,0,0,0,0,0,0,0,0,0,0,0,0,0,0,0,0,0,0,0,0,0,0,0,0,0,0],"id":14,"left_children":[1,3,5,7,9,11,13,15,17,19,21,23,25,27,29,31,33,35,37,39,41,43,45,47,49,51,53,55,57,59,61,-1,-1,-1,-1,-1,-1,-1,-1,-1,-1,-1,-1,-1,-1,-1,-1,-1,-1,-1,-1,-1,-1,-1,-1,-1,-1,-1,-1,-1,-1,-1,-1],"loss_changes":[5.0375162E2,1.1330902E2,5.446579E1,3.419226E1,4.9312824E1,3.1067238E1,1.1911987E1,7.042633E0,2.3581299E1,5.869255E0,3.6796875E1,3.3636093E0,1.6238615E1,1.6248245E0,6.722641E0,7.7035713E-1,3.2508392E0,4.725254E0,1.8534332E1,1.1074462E0,3.66671E0,4.06429E0,2.0270573E1,2.441372E0,2.8998947E0,2.664711E0,1.3748775E1,1.6111298E0,3.4791183E-1,1.6653748E0,6.41848E0,0E0,0E0,0E0,0E0,0E0,0E0,0E0,0E0,0E0,0E0,0E0,0E0,0E0,0E0,0E0,0E0,0E0,0E0,0E0,0E0,0E0,0E0,0E0,0E0,0E0,0E0,0E0,0E0,0E0,0E0,0E0,0E0],"parents":[2147483647,0,0,1,1,2,2,3,3,4,4,5,5,6,6,7,7,8,8,9,9,10,10,11,11,12,12,13,13,14,14,15,15,16,16,17,17,18,18,19,19,20,20,21,21,22,22,23,23,24,24,25,25,26,26,27,27,28,28,29,29,30,30],"right_children":[2,4,6,8,10,12,14,16,18,20,22,24,26,28,30,32,34,36,38,40,42,44,46,48,50,52,54,56,58,60,62,-1,-1,-1,-1,-1,-1,-1,-1,-1,-1,-1,-1,-1,-1,-1,-1,-1,-1,-1,-1,-1,-1,-1,-1,-1,-1,-1,-1,-1,-1,-1,-1],"split_conditions":[1.88E2,1.13E2,2.82E2,6.6E1,1.3E2,7.4E1,2.00001E0,3E1,1.3E2,2.00001E0,6.5E1,1.988E3,1.3E2,5.12E2,1.3E2,2.00001E0,2.00001E0,2.00001E0,2.00001E0,9E1,2.00001E0,1.49E2,2.00001E0,3.0018375E0,2.00001E0,2.02E2,2.00001E0,2.00001E0,2.00001E0,2.00001E0,2.00001E0,-1.2375754E-3,-8.678982E-3,-1.9722316E-2,-1.4022247E-2,2.3156833E-2,-1.6535196E-3,-1.745338E-2,-7.3788175E-3,1.7129835E-3,-4.903673E-3,1.3674886E-3,7.823392E-3,9.378649E-4,5.8845105E-3,-1.2391934E-2,-3.6280388E-3,6.486818E-3,1.1858362E-2,2.258716E-2,1.3321841E-2,6.915966E-3,1.36295855E-2,5.053848E-3,-3.523317E-3,1.1305519E-2,2.2937955E-2,5.3692674E-3,3.0233355E-2,1.3154029E-2,2.234138E-2,3.4278838E-3,1.4525271E-2],"split_indices":[2,2,2,2,7,9,6,9,7,19,9,0,7,2,7,16,20,723,19,7,20,2,19,1,13,2,1533,20,23,19,23,0,0,0,0,0,0,0,0,0,0,0,0,0,0,0,0,0,0,0,0,0,0,0,0,0,0,0,0,0,0,0,0],"split_type":[0,0,0,0,0,0,0,0,0,0,0,0,0,0,0,0,0,0,0,0,0,0,0,0,0,0,0,0,0,0,0,0,0,0,0,0,0,0,0,0,0,0,0,0,0,0,0,0,0,0,0,0,0,0,0,0,0,0,0,0,0,0,0],"sum_hessian":[8.697E3,6.058E3,2.639E3,3.166E3,2.892E3,1.7E3,9.39E2,8.99E2,2.267E3,7.72E2,2.12E3,7.51E2,9.49E2,1.8E2,7.59E2,1.7E2,7.29E2,5.53E2,1.714E3,9.1E1,6.81E2,5.98E2,1.522E3,3.55E2,3.96E2,2.31E2,7.18E2,1.4E2,4E1,1.5E2,6.09E2,1.4E1,1.56E2,1.14E2,6.15E2,6E0,5.47E2,1.84E2,1.53E3,5.2E1,3.9E1,9.2E1,5.89E2,2.95E2,3.03E2,2.94E2,1.228E3,1.19E2,2.36E2,3.5E1,3.61E2,9.2E1,1.39E2,4.51E2,2.67E2,1.5E1,1.25E2,1E0,3.9E1,2.7E1,1.23E2,5.2E1,5.57E2],"tree_param":{"num_deleted":"0","num_feature":"1538","num_nodes":"63","size_leaf_vector":"1"}},{"base_weights":[1.5734826E-3,-2.5611255E-1,1.6639806E-1,-4.2611727E-1,-1.8255442E-1,4.1658934E-2,3.0395395E-1,-9.91127E-2,-4.4694433E-1,-2.412574E-1,-2.6277417E-2,-3.9165046E-2,2.4536887E-1,6.196897E-1,2.5442937E-1,-1.3026871E-1,1.15565015E-2,-2.2939524E-1,-4.7332326E-1,-3.4189528E-1,-2.0316131E-1,-1.6677718E-1,3.4936268E-2,3.0354506E-1,-7.3930286E-2,5.659049E-1,2.2179323E-1,6.6058284E-1,3.820739E-1,6.0336405E-1,2.1536855E-1,-5.054795E-3,4.0342174E-3,-8.749207E-3,-5.5981157E-3,-9.412527E-3,-1.5340735E-2,1.9426804E-2,-1.0362245E-2,-3.6304463E-3,-9.261844E-3,-6.341626E-3,-2.2291301E-3,2.545147E-3,-1.6625252E-3,3.1760816E-2,8.678186E-3,2.2070087E-4,-5.3495504E-3,-3.3497807E-4,1.7662624E-2,1.4248994E-5,7.435496E-3,3.1064615E-2,1.8994277E-2,1.3293883E-2,-4.7962093E-3,-1.3340163E-2,1.830824E-2,2.1287527E-2,5.509084E-3],"categories":[],"categories_nodes":[],"categories_segments":[],"categories_sizes":[],"default_left":[1,1,0,0,0,0,0,0,0,1,1,0,0,0,0,0,0,0,0,0,0,0,1,0,0,0,0,0,0,0,0,0,0,0,0,0,0,0,0,0,0,0,0,0,0,0,0,0,0,0,0,0,0,0,0,0,0,0,0,0,0],"id":15,"left_children":[1,3,5,7,9,11,13,15,17,19,21,23,25,27,29,31,-1,33,35,37,39,41,43,45,47,49,51,53,55,57,59,-1,-1,-1,-1,-1,-1,-1,-1,-1,-1,-1,-1,-1,-1,-1,-1,-1,-1,-1,-1,-1,-1,-1,-1,-1,-1,-1,-1,-1,-1],"loss_changes":[3.6582E2,4.193979E1,9.012146E1,6.8615723E0,2.1524872E1,4.5386177E1,3.8902756E1,9.8574775E-1,5.3604126E0,6.471184E0,5.5273523E0,2.3541464E1,5.791485E0,3.0319061E0,2.9323776E1,6.19717E-1,0E0,2.252512E-1,4.9923706E0,1.8469048E0,1.0715839E1,7.8871584E-1,2.0246577E0,1.6552753E0,1.5215616E1,7.0541E-1,4.21542E0,2.2968903E0,1.7914681E0,1.8430252E0,3.0372475E1,0E0,0E0,0E0,0E0,0E0,0E0,0E0,0E0,0E0,0E0,0E0,0E0,0E0,0E0,0E0,0E0,0E0,0E0,0E0,0E0,0E0,0E0,0E0,0E0,0E0,0E0,0E0,0E0,0E0,0E0],"parents":[2147483647,0,0,1,1,2,2,3,3,4,4,5,5,6,6,7,7,8,8,9,9,10,10,11,11,12,12,13,13,14,14,15,15,17,17,18,18,19,19,20,20,21,21,22,22,23,23,24,24,25,25,26,26,27,27,28,28,29,29,30,30],"right_children":[2,4,6,8,10,12,14,16,18,20,22,24,26,28,30,32,-1,34,36,38,40,42,44,46,48,50,52,54,56,58,60,-1,-1,-1,-1,-1,-1,-1,-1,-1,-1,-1,-1,-1,-1,-1,-1,-1,-1,-1,-1,-1,-1,-1,-1,-1,-1,-1,-1,-1,-1],"split_conditions":[2.5092146E0,6.801667E-1,3.483068E0,2.00001E0,6E0,6E0,2.00001E0,2.0499156E0,2.00001E0,2E0,2E0,2.00001E0,2.00001E0,1.011895E0,2.00001E0,1.1014404E3,1.15565015E-2,1.623452E0,2.00001E0,2.00001E0,2.00001E0,2.5E3,6.89E2,2.6185186E0,2.026E3,2.00001E0,2.00001E0,2.00001E0,8E3,2.00001E0,2.00001E0,-5.054795E-3,4.0342174E-3,-8.749207E-3,-5.5981157E-3,-9.412527E-3,-1.5340735E-2,1.9426804E-2,-1.0362245E-2,-3.6304463E-3,-9.261844E-3,-6.341626E-3,-2.2291301E-3,2.545147E-3,-1.6625252E-3,3.1760816E-2,8.678186E-3,2.2070087E-4,-5.3495504E-3,-3.3497807E-4,1.7662624E-2,1.4248994E-5,7.435496E-3,3.1064615E-2,1.8994277E-2,1.3293883E-2,-4.7962093E-3,-1.3340163E-2,1.830824E-2,2.1287527E-2,5.509084E-3],"split_indices":[1,5,1,24,8,8,24,1,15,1,1,24,17,5,6,12,0,1,17,918,13,11,12,1,0,1232,23,738,11,338,17,0,0,0,0,0,0,0,0,0,0,0,0,0,0,0,0,0,0,0,0,0,0,0,0,0,0,0,0,0,0],"split_type":[0,0,0,0,0,0,0,0,0,0,0,0,0,0,0,0,0,0,0,0,0,0,0,0,0,0,0,0,0,0,0,0,0,0,0,0,0,0,0,0,0,0,0,0,0,0,0,0,0,0,0,0,0,0,0,0,0,0,0,0,0],"sum_hessian":[8.611E3,3.359E3,5.252E3,1.013E3,2.346E3,2.755E3,2.497E3,6.1E1,9.52E2,1.705E3,6.41E2,1.973E3,7.82E2,3.37E2,2.16E3,5.8E1,3E0,1.04E2,8.48E2,4.66E2,1.239E3,1.94E2,4.47E2,1.81E2,1.792E3,5.2E1,7.3E2,2.86E2,5.1E1,2.16E2,1.944E3,5.1E1,7E0,4E1,6.4E1,1.65E2,6.83E2,1E0,4.65E2,6.98E2,5.41E2,1.3E2,6.4E1,2.88E2,1.59E2,2E0,1.79E2,1.008E3,7.84E2,2E0,5E1,7.7E1,6.53E2,1.7E1,2.69E2,4.6E1,5E0,1E0,2.15E2,1.16E2,1.828E3],"tree_param":{"num_deleted":"0","num_feature":"1538","num_nodes":"61","size_leaf_vector":"1"}},{"base_weights":[-3.6809428E-3,-2.1441282E-1,2.3999675E-1,-4.2909205E-1,-1.5770628E-1,1.0418091E-1,4.30028E-1,-2.6151788E-1,-4.69044E-1,2.8347481E-2,-2.1592465E-1,-1.7447744E-1,1.773533E-1,3.782116E-1,6.899894E-1,-5.1440556E-2,-2.8198224E-1,-1.700105E-1,-4.8578644E-1,-7.966239E-2,1.2778689E-1,-4.7341308E-1,-1.814499E-1,-5.108382E-1,-9.920098E-2,3.095524E-1,9.636653E-2,1.263764E-1,4.3321094E-1,3.2423744E-1,7.2819364E-1,-8.184791E-3,9.39004E-4,-1.0309116E-2,-6.151538E-3,-2.197221E-3,-1.2416872E-2,-1.6789518E-2,-1.2668688E-2,2.0466728E-2,-2.6028778E-3,-5.2519073E-3,4.7657597E-3,-1.4523016E-2,1.5559223E-2,-9.317881E-3,-3.949298E-3,-1.1842061E-2,-1.7805113E-2,2.2154434E-3,-6.374658E-3,1.4085889E-2,8.460716E-3,1.3515596E-2,1.8359013E-3,9.405325E-3,-2.4625217E-3,1.3871649E-2,4.533442E-3,-1.1201877E-2,1.5944209E-2,2.209349E-2,1.0901141E-3],"categories":[],"categories_nodes":[],"categories_segments":[],"categories_sizes":[],"default_left":[0,0,0,0,0,0,0,0,0,0,0,0,0,0,1,0,0,0,0,0,0,0,1,0,0,0,0,0,1,0,1,0,0,0,0,0,0,0,0,0,0,0,0,0,0,0,0,0,0,0,0,0,0,0,0,0,0,0,0,0,0,0,0],"id":16,"left_children":[1,3,5,7,9,11,13,15,17,19,21,23,25,27,29,31,33,35,37,39,41,43,45,47,49,51,53,55,57,59,61,-1,-1,-1,-1,-1,-1,-1,-1,-1,-1,-1,-1,-1,-1,-1,-1,-1,-1,-1,-1,-1,-1,-1,-1,-1,-1,-1,-1,-1,-1,-1,-1],"loss_changes":[4.4479953E2,5.6479263E1,1.0363095E2,6.371399E0,3.982364E1,4.7825325E1,2.2288269E1,7.9802513E-1,3.8325348E0,9.429543E0,2.4769257E1,1.230551E1,1.985191E1,1.9308624E1,3.6344757E0,3.382566E-1,7.4536324E-1,9.8451746E-1,3.234375E0,2.3366115E0,4.328225E0,3.749916E0,1.5853409E1,6.199188E-1,7.85742E0,2.9723587E0,1.4333636E1,9.856287E0,9.370895E0,4.246547E0,1.4012299E0,0E0,0E0,0E0,0E0,0E0,0E0,0E0,0E0,0E0,0E0,0E0,0E0,0E0,0E0,0E0,0E0,0E0,0E0,0E0,0E0,0E0,0E0,0E0,0E0,0E0,0E0,0E0,0E0,0E0,0E0,0E0,0E0],"parents":[2147483647,0,0,1,1,2,2,3,3,4,4,5,5,6,6,7,7,8,8,9,9,10,10,11,11,12,12,13,13,14,14,15,15,16,16,17,17,18,18,19,19,20,20,21,21,22,22,23,23,24,24,25,25,26,26,27,27,28,28,29,29,30,30],"right_children":[2,4,6,8,10,12,14,16,18,20,22,24,26,28,30,32,34,36,38,40,42,44,46,48,50,52,54,56,58,60,62,-1,-1,-1,-1,-1,-1,-1,-1,-1,-1,-1,-1,-1,-1,-1,-1,-1,-1,-1,-1,-1,-1,-1,-1,-1,-1,-1,-1,-1,-1,-1,-1],"split_conditions":[1.5E2,6.7E1,2.3E2,3E1,1.3E2,2.00001E0,4.37E2,2.00001E0,2.00001E0,1.02E2,2.00001E0,2.00001E0,6.2E1,2.00001E0,4E0,1.93E2,2.019E3,2.514929E3,5E1,2.00001E0,2.00001E0,2.03E3,6.801667E-1,2.00001E0,9.1E1,2.00001E0,2.00001E0,1.17E2,3.9E3,2.00001E0,9E3,-8.184791E-3,9.39004E-4,-1.0309116E-2,-6.151538E-3,-2.197221E-3,-1.2416872E-2,-1.6789518E-2,-1.2668688E-2,2.0466728E-2,-2.6028778E-3,-5.2519073E-3,4.7657597E-3,-1.4523016E-2,1.5559223E-2,-9.317881E-3,-3.949298E-3,-1.1842061E-2,-1.7805113E-2,2.2154434E-3,-6.374658E-3,1.4085889E-2,8.460716E-3,1.3515596E-2,1.8359013E-3,9.405325E-3,-2.4625217E-3,1.3871649E-2,4.533442E-3,-1.1201877E-2,1.5944209E-2,2.209349E-2,1.0901141E-3],"split_indices":[2,2,2,9,7,1535,2,16,24,2,19,19,9,1535,1,12,0,11,2,723,19,3,5,4,9,24,24,9,12,1535,12,0,0,0,0,0,0,0,0,0,0,0,0,0,0,0,0,0,0,0,0,0,0,0,0,0,0,0,0,0,0,0,0],"split_type":[0,0,0,0,0,0,0,0,0,0,0,0,0,0,0,0,0,0,0,0,0,0,0,0,0,0,0,0,0,0,0,0,0,0,0,0,0,0,0,0,0,0,0,0,0,0,0,0,0,0,0,0,0,0,0,0,0,0,0,0,0,0,0],"sum_hessian":[8.66E3,4.644E3,4.016E3,9.69E2,3.675E3,2.343E3,1.673E3,1.88E2,7.81E2,8.76E2,2.799E3,4.87E2,1.856E3,1.397E3,2.76E2,1.7E1,1.71E2,4.2E1,7.39E2,4.2E2,4.56E2,3.29E2,2.47E3,8.8E1,3.99E2,7.04E2,1.152E3,2.51E2,1.146E3,2.7E1,2.49E2,4E0,1.3E1,9.3E1,7.8E1,3.1E1,1.1E1,3.38E2,4.01E2,3E0,4.17E2,4.2E1,4.14E2,3.26E2,3E0,6.86E2,1.784E3,3.9E1,4.9E1,1.58E2,2.41E2,1.01E2,6.03E2,1.03E2,1.049E3,1.32E2,1.19E2,1.038E3,1.08E2,6E0,2.1E1,2.46E2,3E0],"tree_param":{"num_deleted":"0","num_feature":"1538","num_nodes":"63","size_leaf_vector":"1"}},{"base_weights":[2.7506617E-3,-1.9833873E-1,2.5391465E-1,-3.6072606E-1,-1.18727885E-1,1.11758515E-1,4.3494317E-1,-4.9323517E-1,-3.123014E-1,-3.2810023E-1,-6.644046E-2,-1.4319552E-1,1.7782538E-1,6.2772346E-1,3.7236056E-1,-4.6893415E-1,-7.7247167E-1,-2.7490482E-1,-4.800759E-1,9.416701E-2,-3.710692E-1,-1.3201657E-1,5.741831E-2,-3.9890725E-2,-3.1806654E-1,6.0226184E-1,1.5981562E-1,5.3447706E-1,7.798653E-1,3.0229968E-1,5.606868E-1,1.877758E-2,-1.4201418E-2,-2.780099E-3,-2.3742342E-2,-1.447645E-2,-7.307276E-3,-1.5358634E-2,-6.000488E-3,-1.3574867E-2,4.2388383E-3,-1.2641568E-2,-4.4657337E-3,-8.223008E-3,-2.5013466E-3,-4.0805032E-3,2.7655857E-3,-7.526579E-3,1.615466E-3,-1.10800015E-2,2.7785758E-3,1.1372968E-2,2.1168059E-2,7.9591945E-3,2.885368E-3,8.364323E-3,1.6894596E-2,1.2052059E-4,2.35473E-2,-3.6186976E-3,1.017005E-2,-2.163907E-2,1.7108789E-2],"categories":[],"categories_nodes":[],"categories_segments":[],"categories_sizes":[],"default_left":[0,0,0,0,0,0,0,1,0,0,0,0,0,0,0,0,0,0,0,0,0,1,0,1,0,0,0,0,0,0,0,0,0,0,0,0,0,0,0,0,0,0,0,0,0,0,0,0,0,0,0,0,0,0,0,0,0,0,0,0,0,0,0],"id":17,"left_children":[1,3,5,7,9,11,13,15,17,19,21,23,25,27,29,31,33,35,37,39,41,43,45,47,49,51,53,55,57,59,61,-1,-1,-1,-1,-1,-1,-1,-1,-1,-1,-1,-1,-1,-1,-1,-1,-1,-1,-1,-1,-1,-1,-1,-1,-1,-1,-1,-1,-1,-1,-1,-1],"loss_changes":[4.3470856E2,6.1752014E1,9.8436646E1,9.933029E0,3.5108856E1,3.615587E1,2.0071136E1,2.48098E0,7.108444E0,1.1665489E1,2.0873447E1,7.9720488E0,1.29291115E1,5.4138947E0,1.6626831E1,2.1851578E0,3.3866882E-1,6.0364456E0,1.7635307E0,1.609709E0,6.4445496E0,1.1587149E1,5.998081E0,5.5317407E0,3.487156E0,1.3237629E0,1.09571E1,1.73452E0,5.995865E-1,1.4476471E1,4.6476746E0,0E0,0E0,0E0,0E0,0E0,0E0,0E0,0E0,0E0,0E0,0E0,0E0,0E0,0E0,0E0,0E0,0E0,0E0,0E0,0E0,0E0,0E0,0E0,0E0,0E0,0E0,0E0,0E0,0E0,0E0,0E0,0E0],"parents":[2147483647,0,0,1,1,2,2,3,3,4,4,5,5,6,6,7,7,8,8,9,9,10,10,11,11,12,12,13,13,14,14,15,15,16,16,17,17,18,18,19,19,20,20,21,21,22,22,23,23,24,24,25,25,26,26,27,27,28,28,29,29,30,30],"right_children":[2,4,6,8,10,12,14,16,18,20,22,24,26,28,30,32,34,36,38,40,42,44,46,48,50,52,54,56,58,60,62,-1,-1,-1,-1,-1,-1,-1,-1,-1,-1,-1,-1,-1,-1,-1,-1,-1,-1,-1,-1,-1,-1,-1,-1,-1,-1,-1,-1,-1,-1,-1,-1],"split_conditions":[1.54E2,8.1E1,2.3E2,5E1,2.00001E0,2.00001E0,1.3E2,2.1E3,2.00001E0,2.00001E0,2.00001E0,2.00001E0,2.00001E0,3.37E2,2.03E3,2.00001E0,2.00001E0,2.00001E0,1.25E3,1.032E2,5.45E2,7.684108E-1,2.00001E0,1E0,1.177494E3,2.028E2,1.3E2,2.00001E0,2.00001E0,2.00001E0,1.3136327E0,1.877758E-2,-1.4201418E-2,-2.780099E-3,-2.3742342E-2,-1.447645E-2,-7.307276E-3,-1.5358634E-2,-6.000488E-3,-1.3574867E-2,4.2388383E-3,-1.2641568E-2,-4.4657337E-3,-8.223008E-3,-2.5013466E-3,-4.0805032E-3,2.7655857E-3,-7.526579E-3,1.615466E-3,-1.10800015E-2,2.7785758E-3,1.1372968E-2,2.1168059E-2,7.9591945E-3,2.885368E-3,8.364323E-3,1.6894596E-2,1.2052059E-4,2.35473E-2,-3.6186976E-3,1.017005E-2,-2.163907E-2,1.7108789E-2],"split_indices":[2,2,2,2,1535,1535,7,12,13,16,1533,4,17,2,3,696,614,20,3,3,3,5,20,5,3,3,7,20,1270,23,1,0,0,0,0,0,0,0,0,0,0,0,0,0,0,0,0,0,0,0,0,0,0,0,0,0,0,0,0,0,0,0,0],"split_type":[0,0,0,0,0,0,0,0,0,0,0,0,0,0,0,0,0,0,0,0,0,0,0,0,0,0,0,0,0,0,0,0,0,0,0,0,0,0,0,0,0,0,0,0,0,0,0,0,0,0,0,0,0,0,0,0,0,0,0,0,0,0,0],"sum_hessian":[8.605E3,4.779E3,3.826E3,1.571E3,3.208E3,2.144E3,1.682E3,4.18E2,1.153E3,6.4E2,2.568E3,4.41E2,1.703E3,4.1E2,1.272E3,3.87E2,3.1E1,9.45E2,2.08E2,5.9E1,5.81E2,1.679E3,8.89E2,2.78E2,1.63E2,6.8E1,1.635E3,2.57E2,1.53E2,9.29E2,3.43E2,1E0,3.86E2,1E0,3E1,1.22E2,8.23E2,1.86E2,2.2E1,4E0,5.5E1,4.73E2,1.08E2,4.27E2,1.252E3,1.35E2,7.54E2,8.5E1,1.93E2,1.45E2,1.8E1,2.3E1,4.5E1,6.14E2,1.021E3,2.7E1,2.3E2,1E0,1.52E2,7.4E1,8.55E2,2E0,3.41E2],"tree_param":{"num_deleted":"0","num_feature":"1538","num_nodes":"63","size_leaf_vector":"1"}},{"base_weights":[3.9158147E-3,-1.4041667E-1,3.2733297E-1,-2.6009518E-1,-1.1270737E-2,2.2966301E-1,5.1498353E-1,-8.946971E-2,-3.045222E-1,-2.4373072E-1,5.2262384E-2,-3.0197524E-2,2.8994417E-1,7.289841E-1,4.5482367E-1,-2.2768798E-1,4.4155607E-4,-4.306251E-1,-2.5092375E-1,-5.5722135E-1,-1.8188855E-1,-2.0108224E-1,9.08274E-2,1.8022084E-1,-2.0906067E-1,3.641542E-1,1.6973647E-1,-1.3601546E-2,7.37204E-1,9.030498E-1,4.214637E-1,-9.879485E-3,-5.8000283E-3,-4.8390995E-3,6.232181E-4,-1.1800562E-2,-1.6852887E-2,-1.5640661E-2,-6.4831222E-3,-1.6963812E-2,4.123878E-3,4.663205E-3,-6.8840836E-3,-1.0120809E-2,1.5840185E-3,1.3687145E-2,1.9960785E-3,7.994997E-3,-2.1701087E-3,1.9789562E-2,-7.2784363E-3,1.1470282E-2,2.622646E-3,1.6076254E-2,3.9615254E-3,2.0320296E-2,2.7647434E-2,2.8197266E-2,7.602224E-3,6.6999183E-3,1.4973078E-2],"categories":[],"categories_nodes":[],"categories_segments":[],"categories_sizes":[],"default_left":[0,0,0,0,0,0,0,0,0,0,0,0,0,0,0,0,1,1,0,0,0,0,0,0,0,1,0,0,0,1,0,0,0,0,0,0,0,0,0,0,0,0,0,0,0,0,0,0,0,0,0,0,0,0,0,0,0,0,0,0,0],"id":18,"left_children":[1,3,5,7,9,11,13,15,17,19,21,23,25,27,29,31,33,35,37,39,41,43,45,47,49,51,53,-1,55,57,59,-1,-1,-1,-1,-1,-1,-1,-1,-1,-1,-1,-1,-1,-1,-1,-1,-1,-1,-1,-1,-1,-1,-1,-1,-1,-1,-1,-1,-1,-1],"loss_changes":[4.0648526E2,9.30576E1,4.91286E1,2.3661438E1,4.2798267E1,2.7719604E1,1.1499847E1,8.040615E0,1.6647308E1,1.1957325E1,2.225533E1,1.2608132E1,1.2748207E1,2.2780228E0,1.0385422E1,8.266144E-1,1.2957937E0,3.3862915E0,1.6290596E1,6.6153336E-1,8.397932E0,1.0432011E1,1.7509329E1,3.3750067E0,5.435951E0,4.4311676E0,7.5182266E0,0E0,1.5721283E0,9.351425E-1,1.02258E1,0E0,0E0,0E0,0E0,0E0,0E0,0E0,0E0,0E0,0E0,0E0,0E0,0E0,0E0,0E0,0E0,0E0,0E0,0E0,0E0,0E0,0E0,0E0,0E0,0E0,0E0,0E0,0E0,0E0,0E0],"parents":[2147483647,0,0,1,1,2,2,3,3,4,4,5,5,6,6,7,7,8,8,9,9,10,10,11,11,12,12,13,13,14,14,15,15,16,16,17,17,18,18,19,19,20,20,21,21,22,22,23,23,24,24,25,25,26,26,28,28,29,29,30,30],"right_children":[2,4,6,8,10,12,14,16,18,20,22,24,26,28,30,32,34,36,38,40,42,44,46,48,50,52,54,-1,56,58,60,-1,-1,-1,-1,-1,-1,-1,-1,-1,-1,-1,-1,-1,-1,-1,-1,-1,-1,-1,-1,-1,-1,-1,-1,-1,-1,-1,-1,-1,-1],"split_conditions":[1.88E2,1.13E2,2.8786478E2,3E1,2.00001E0,2.00001E0,2.00001E0,7.6E1,6.7E1,2.00001E0,2.00001E0,1.05E2,1.47E2,2.00001E0,2.00001E0,4.8E1,1E0,8.98E2,2.00001E0,6.5E3,2.00001E0,4.76E2,2.00001E0,1.011895E0,2.00001E0,4.1E3,2.00001E0,-1.3601546E-2,5.12E2,1.26E2,6.25E2,-9.879485E-3,-5.8000283E-3,-4.8390995E-3,6.232181E-4,-1.1800562E-2,-1.6852887E-2,-1.5640661E-2,-6.4831222E-3,-1.6963812E-2,4.123878E-3,4.663205E-3,-6.8840836E-3,-1.0120809E-2,1.5840185E-3,1.3687145E-2,1.9960785E-3,7.994997E-3,-2.1701087E-3,1.9789562E-2,-7.2784363E-3,1.1470282E-2,2.622646E-3,1.6076254E-2,3.9615254E-3,2.0320296E-2,2.7647434E-2,2.8197266E-2,7.602224E-3,6.6999183E-3,1.4973078E-2],"split_indices":[2,2,2,9,1535,1535,6,2,2,19,19,9,9,338,17,2,5,12,19,12,16,3,17,5,17,12,24,0,2,9,3,0,0,0,0,0,0,0,0,0,0,0,0,0,0,0,0,0,0,0,0,0,0,0,0,0,0,0,0,0,0],"split_type":[0,0,0,0,0,0,0,0,0,0,0,0,0,0,0,0,0,0,0,0,0,0,0,0,0,0,0,0,0,0,0,0,0,0,0,0,0,0,0,0,0,0,0,0,0,0,0,0,0,0,0,0,0,0,0,0,0,0,0,0,0],"sum_hessian":[8.706E3,6.02E3,2.686E3,3.124E3,2.896E3,1.768E3,9.18E2,6.46E2,2.478E3,6.21E2,2.275E3,3.33E2,1.435E3,1.99E2,7.19E2,2.54E2,3.92E2,7.37E2,1.741E3,1.01E2,5.2E2,3E2,1.975E3,1.53E2,1.8E2,8.86E2,5.49E2,1E0,1.98E2,4.8E1,6.71E2,6.2E1,1.92E2,4.3E1,3.49E2,5.77E2,1.6E2,1.97E2,1.544E3,1E2,1E0,6.4E1,4.56E2,1.95E2,1.05E2,1.22E2,1.853E3,1.14E2,3.9E1,6E0,1.74E2,8.31E2,5.5E1,5E1,4.99E2,1.53E2,4.5E1,4.5E1,3E0,1.9E2,4.81E2],"tree_param":{"num_deleted":"0","num_feature":"1538","num_nodes":"61","size_leaf_vector":"1"}},{"base_weights":[3.130274E-3,-1.6071217E-1,2.807115E-1,-2.578002E-1,-3.3148613E-2,1.812991E-1,4.7105697E-1,-1.11607455E-1,-3.0151868E-1,-3.2847255E-1,1.2224075E-2,-7.771577E-2,2.4460876E-1,6.868341E-1,4.1602445E-1,-2.3399487E-1,-4.7696713E-2,-4.355962E-1,-2.5725746E-1,-5.453288E-1,-2.4257953E-1,1.8466468E-1,-5.0217494E-2,-3.7828276E-1,-1.563469E-2,-8.2203485E-3,2.6952013E-1,6.2954175E-1,8.6658794E-1,6.249657E-1,3.5749933E-1,-1.3625816E-2,-6.3366564E-3,1.9965777E-2,-1.7044988E-3,-1.811491E-2,-1.2361991E-2,-1.5860228E-2,-6.6995374E-3,-1.1114127E-2,-1.8622637E-2,-9.406431E-3,-1.4940025E-3,7.8218235E-3,2.9410294E-3,-2.9527866E-3,4.2498936E-3,-1.5390869E-2,-5.6360182E-3,9.164515E-3,-1.9077151E-3,6.1219307E-3,-2.9568537E-3,1.8283251E-3,9.130256E-3,2.0018665E-2,9.790392E-3,3.8616657E-3,2.6363125E-2,1.7223122E-2,2.443929E-2,-7.0791965E-4,1.1757231E-2],"categories":[],"categories_nodes":[],"categories_segments":[],"categories_sizes":[],"default_left":[0,0,0,0,0,0,0,0,0,0,0,0,0,0,0,0,0,0,0,0,0,0,0,0,0,0,0,0,0,0,0,0,0,0,0,0,0,0,0,0,0,0,0,0,0,0,0,0,0,0,0,0,0,0,0,0,0,0,0,0,0,0,0],"id":19,"left_children":[1,3,5,7,9,11,13,15,17,19,21,23,25,27,29,31,33,35,37,39,41,43,45,47,49,51,53,55,57,59,61,-1,-1,-1,-1,-1,-1,-1,-1,-1,-1,-1,-1,-1,-1,-1,-1,-1,-1,-1,-1,-1,-1,-1,-1,-1,-1,-1,-1,-1,-1,-1,-1],"loss_changes":[3.9307968E2,6.730336E1,6.0618607E1,1.9689987E1,3.1493172E1,3.4602684E1,1.2776474E1,5.558011E0,1.39822235E1,5.6977882E0,2.195336E1,7.7377877E0,1.0677872E1,1.740715E0,1.0525269E1,1.1276226E0,3.0884364E0,2.0787888E0,1.635257E1,9.306412E-1,3.0763369E0,3.545866E0,1.3861672E1,1.7253208E0,5.332254E0,2.9543633E0,1.1188232E1,1.7507248E0,3.4534073E-1,1.3749466E0,9.04406E0,0E0,0E0,0E0,0E0,0E0,0E0,0E0,0E0,0E0,0E0,0E0,0E0,0E0,0E0,0E0,0E0,0E0,0E0,0E0,0E0,0E0,0E0,0E0,0E0,0E0,0E0,0E0,0E0,0E0,0E0,0E0,0E0],"parents":[2147483647,0,0,1,1,2,2,3,3,4,4,5,5,6,6,7,7,8,8,9,9,10,10,11,11,12,12,13,13,14,14,15,15,16,16,17,17,18,18,19,19,20,20,21,21,22,22,23,23,24,24,25,25,26,26,27,27,28,28,29,29,30,30],"right_children":[2,4,6,8,10,12,14,16,18,20,22,24,26,28,30,32,34,36,38,40,42,44,46,48,50,52,54,56,58,60,62,-1,-1,-1,-1,-1,-1,-1,-1,-1,-1,-1,-1,-1,-1,-1,-1,-1,-1,-1,-1,-1,-1,-1,-1,-1,-1,-1,-1,-1,-1,-1,-1],"split_conditions":[1.72E2,1.12E2,2.7E2,1.3E2,2.00001E0,2.00001E0,2.00001E0,7.3E1,6.0145233E1,2.00001E0,1.3E2,2.00001E0,2.00001E0,5.12E2,1.3E2,2.00001E0,2.00001E0,2.00001E0,2.00001E0,2.00001E0,1.3E3,6.89E2,2.00001E0,4.88E2,2.00001E0,1.3E2,2.00001E0,3.4E3,2.00001E0,4.37E2,2.00001E0,-1.3625816E-2,-6.3366564E-3,1.9965777E-2,-1.7044988E-3,-1.811491E-2,-1.2361991E-2,-1.5860228E-2,-6.6995374E-3,-1.1114127E-2,-1.8622637E-2,-9.406431E-3,-1.4940025E-3,7.8218235E-3,2.9410294E-3,-2.9527866E-3,4.2498936E-3,-1.5390869E-2,-5.6360182E-3,9.164515E-3,-1.9077151E-3,6.1219307E-3,-2.9568537E-3,1.8283251E-3,9.130256E-3,2.0018665E-2,9.790392E-3,3.8616657E-3,2.6363125E-2,1.7223122E-2,2.443929E-2,-7.0791965E-4,1.1757231E-2],"split_indices":[2,2,2,7,19,1535,6,2,2,1535,7,19,23,2,7,20,723,23,19,4,12,12,14,10,24,7,20,12,1177,2,23,0,0,0,0,0,0,0,0,0,0,0,0,0,0,0,0,0,0,0,0,0,0,0,0,0,0,0,0,0,0,0,0],"split_type":[0,0,0,0,0,0,0,0,0,0,0,0,0,0,0,0,0,0,0,0,0,0,0,0,0,0,0,0,0,0,0,0,0,0,0,0,0,0,0,0,0,0,0,0,0,0,0,0,0,0,0,0,0,0,0,0,0,0,0,0,0,0,0],"sum_hessian":[8.641E3,5.434E3,3.207E3,3.085E3,2.349E3,2.108E3,1.099E3,7.11E2,2.374E3,3.12E2,2.037E3,4.14E2,1.694E3,2.21E2,8.78E2,2.43E2,4.68E2,5.87E2,1.787E3,8.7E1,2.25E2,5.41E2,1.496E3,7E1,3.44E2,1.52E2,1.542E3,1.71E2,5E1,1.9E2,6.88E2,2.1E1,2.22E2,5E0,4.63E2,6.9E1,5.18E2,1.97E2,1.59E3,2.8E1,5.9E1,1.64E2,6.1E1,2.87E2,2.54E2,1.196E3,3E2,4E1,3E1,4.4E1,3E2,4.5E1,1.07E2,2.21E2,1.321E3,1.51E2,2E1,1E0,4.9E1,1.53E2,3.7E1,5.7E1,6.31E2],"tree_param":{"num_deleted":"0","num_feature":"1538","num_nodes":"63","size_leaf_vector":"1"}},{"base_weights":[2.8300332E-3,-1.7644939E-1,2.307825E-1,-2.8299332E-1,-7.918848E-2,1.0296198E-1,3.8992548E-1,-1.2679486E-1,-3.232411E-1,1.1301782E-1,-1.3909207E-1,-1.4183024E-1,1.6420823E-1,3.440192E-1,6.2804395E-1,-2.0625608E-1,-5.9564553E-2,-4.1277438E-1,-2.6148057E-1,1.8067433E-1,1.5352067E-2,-1.5387068E-2,-2.2663361E-1,5.868638E-2,-2.4815723E-1,3.2135013E-1,1.0108256E-1,1.16922446E-1,3.945808E-1,-1.5838394E-2,6.34304E-1,-3.4377907E-4,-6.752429E-3,-6.9960975E-3,-1.1165304E-3,-3.462525E-3,-1.2834486E-2,-1.2885123E-2,-6.6673537E-3,7.5227995E-3,2.2578181E-3,5.278519E-3,-3.0129354E-3,-4.7200816E-3,5.3915085E-4,2.276888E-3,-7.5950306E-3,-5.3037102E-3,4.9605644E-3,-8.841331E-3,1.7401205E-3,1.3802017E-2,8.821454E-3,1.1627356E-2,2.0354642E-3,4.75044E-3,-1.4389808E-2,1.4044686E-2,8.19386E-3,1.2842254E-2,2.0383004E-2],"categories":[],"categories_nodes":[],"categories_segments":[],"categories_sizes":[],"default_left":[0,0,0,0,0,0,0,0,0,0,0,0,0,1,0,0,1,0,0,0,0,0,0,1,0,0,0,0,0,0,0,0,0,0,0,0,0,0,0,0,0,0,0,0,0,0,0,0,0,0,0,0,0,0,0,0,0,0,0,0,0],"id":20,"left_children":[1,3,5,7,9,11,13,15,17,19,21,23,25,27,29,31,33,35,37,39,41,43,45,47,49,51,53,55,57,-1,59,-1,-1,-1,-1,-1,-1,-1,-1,-1,-1,-1,-1,-1,-1,-1,-1,-1,-1,-1,-1,-1,-1,-1,-1,-1,-1,-1,-1,-1,-1],"loss_changes":[3.497821E2,4.9624603E1,7.660751E1,1.4330292E1,2.8869421E1,3.137283E1,1.8126358E1,2.49855E0,9.939377E0,3.9354296E0,2.0691353E1,8.947782E0,1.6563152E1,1.6132538E1,2.2887344E0,7.858324E-1,9.8467296E-1,3.260498E0,7.011238E0,2.5816994E0,4.573354E0,3.757875E0,9.001831E0,3.6963596E0,3.922409E0,1.678791E0,1.1351698E1,6.4521065E0,1.016629E1,0E0,2.212738E0,0E0,0E0,0E0,0E0,0E0,0E0,0E0,0E0,0E0,0E0,0E0,0E0,0E0,0E0,0E0,0E0,0E0,0E0,0E0,0E0,0E0,0E0,0E0,0E0,0E0,0E0,0E0,0E0,0E0,0E0],"parents":[2147483647,0,0,1,1,2,2,3,3,4,4,5,5,6,6,7,7,8,8,9,9,10,10,11,11,12,12,13,13,14,14,15,15,16,16,17,17,18,18,19,19,20,20,21,21,22,22,23,23,24,24,25,25,26,26,27,27,28,28,30,30],"right_children":[2,4,6,8,10,12,14,16,18,20,22,24,26,28,30,32,34,36,38,40,42,44,46,48,50,52,54,56,58,-1,60,-1,-1,-1,-1,-1,-1,-1,-1,-1,-1,-1,-1,-1,-1,-1,-1,-1,-1,-1,-1,-1,-1,-1,-1,-1,-1,-1,-1,-1,-1],"split_conditions":[1.55E2,9.5E1,2.3E2,3E1,1.3E2,2.00001E0,4.37E2,7.3E1,6.6E1,9E1,9.6E1,9.1E1,4.6E1,8.2613117E-1,2.00001E0,2.00001E0,1E0,2.00001E0,2.00001E0,7.33E2,5.1E1,2.00001E0,2.00001E0,1E0,1.25E3,2.00001E0,2.00001E0,4.7E3,1.26E2,-1.5838394E-2,2.00001E0,-3.4377907E-4,-6.752429E-3,-6.9960975E-3,-1.1165304E-3,-3.462525E-3,-1.2834486E-2,-1.2885123E-2,-6.6673537E-3,7.5227995E-3,2.2578181E-3,5.278519E-3,-3.0129354E-3,-4.7200816E-3,5.3915085E-4,2.276888E-3,-7.5950306E-3,-5.3037102E-3,4.9605644E-3,-8.841331E-3,1.7401205E-3,1.3802017E-2,8.821454E-3,1.1627356E-2,2.0354642E-3,4.75044E-3,-1.4389808E-2,1.4044686E-2,8.19386E-3,1.2842254E-2,2.0383004E-2],"split_indices":[2,2,2,9,7,1535,2,2,2,7,9,9,9,5,966,16,5,24,20,12,9,20,15,5,3,13,24,12,9,0,1535,0,0,0,0,0,0,0,0,0,0,0,0,0,0,0,0,0,0,0,0,0,0,0,0,0,0,0,0,0,0],"split_type":[0,0,0,0,0,0,0,0,0,0,0,0,0,0,0,0,0,0,0,0,0,0,0,0,0,0,0,0,0,0,0,0,0,0,0,0,0,0,0,0,0,0,0,0,0,0,0,0,0,0,0,0,0,0,0,0,0,0,0,0,0],"sum_hessian":[8.557E3,4.79E3,3.767E3,2.285E3,2.505E3,2.09E3,1.677E3,4.69E2,1.816E3,5.95E2,1.91E3,4.18E2,1.672E3,1.408E3,2.69E2,2.14E2,2.55E2,7.39E2,1.077E3,3.51E2,2.44E2,7.92E2,1.118E3,1.45E2,2.73E2,4.78E2,1.194E3,2.57E2,1.151E3,1E0,2.68E2,1.9E1,1.95E2,2.8E1,2.27E2,3.6E1,7.03E2,2.02E2,8.75E2,2.1E2,1.41E2,1.02E2,1.42E2,1.5E2,6.42E2,9E1,1.028E3,4.5E1,1E2,2.37E2,3.6E1,7.6E1,4.02E2,1.23E2,1.071E3,2.41E2,1.6E1,7.15E2,4.36E2,5E1,2.18E2],"tree_param":{"num_deleted":"0","num_feature":"1538","num_nodes":"61","size_leaf_vector":"1"}},{"base_weights":[-2.4815454E-4,-1.5618545E-1,2.4792723E-1,-2.6596022E-1,-6.280162E-2,1.5741202E-1,4.375282E-1,-3.894954E-1,-2.1036185E-1,-3.516261E-1,-1.7502448E-2,3.970762E-1,1.23818435E-1,2.0930797E-1,4.8570365E-1,-5.712958E-1,-3.5095185E-1,2.8324058E-2,-2.1710864E-1,-3.9818582E-1,-8.891115E-2,-1.9464587E-1,3.5964735E-2,-3.2048006E-2,4.1655564E-1,2.7965957E-1,6.159217E-2,1.0229457E-1,4.5721126E-1,4.4281903E-1,6.9629127E-1,-1.7692335E-2,3.4683035E-4,-1.6682958E-2,-9.7266E-3,2.8439788E-2,-6.6555277E-3,-5.7977876E-3,-1.2794752E-2,9.16655E-4,-1.5695347E-2,-1.3508189E-2,-4.8731435E-3,-7.206588E-3,2.312415E-3,3.0838766E-3,-1.0834372E-2,-1.8823977E-3,1.2835734E-2,2.7222617E-3,9.671968E-3,4.371284E-3,-2.2453186E-3,3.070504E-5,1.3600005E-2,-2.1916809E-2,1.5410574E-2,1.7870411E-2,1.1420035E-2,-2.0876313E-3,2.105809E-2],"categories":[],"categories_nodes":[],"categories_segments":[],"categories_sizes":[],"default_left":[0,0,0,1,0,0,1,0,0,0,0,0,0,0,0,0,0,0,0,0,0,0,0,0,0,0,0,0,0,0,0,0,0,0,0,0,0,0,0,0,0,0,0,0,0,0,0,0,0,0,0,0,0,0,0,0,0,0,0,0,0],"id":21,"left_children":[1,3,5,7,9,11,13,15,17,19,21,23,25,27,29,31,33,-1,35,37,39,41,43,45,47,49,51,53,55,57,59,-1,-1,-1,-1,-1,-1,-1,-1,-1,-1,-1,-1,-1,-1,-1,-1,-1,-1,-1,-1,-1,-1,-1,-1,-1,-1,-1,-1,-1,-1],"loss_changes":[3.3537247E2,5.4540115E1,5.73201E1,1.6718079E1,3.76351E1,1.8186756E1,1.1772522E1,5.110977E0,1.3360863E1,4.735054E0,2.3571743E1,2.337181E0,1.9261232E1,4.9937344E0,7.7382507E0,1.4154549E0,3.263626E0,0E0,9.492737E0,1.8375816E0,3.1288033E0,4.677397E0,2.1730293E1,6.140229E-1,1.4678078E0,4.548828E0,1.6330687E1,4.763248E0,4.1987762E0,6.832123E0,6.930313E-1,0E0,0E0,0E0,0E0,0E0,0E0,0E0,0E0,0E0,0E0,0E0,0E0,0E0,0E0,0E0,0E0,0E0,0E0,0E0,0E0,0E0,0E0,0E0,0E0,0E0,0E0,0E0,0E0,0E0,0E0],"parents":[2147483647,0,0,1,1,2,2,3,3,4,4,5,5,6,6,7,7,8,8,9,9,10,10,11,11,12,12,13,13,14,14,15,15,16,16,18,18,19,19,20,20,21,21,22,22,23,23,24,24,25,25,26,26,27,27,28,28,29,29,30,30],"right_children":[2,4,6,8,10,12,14,16,18,20,22,24,26,28,30,32,34,-1,36,38,40,42,44,46,48,50,52,54,56,58,60,-1,-1,-1,-1,-1,-1,-1,-1,-1,-1,-1,-1,-1,-1,-1,-1,-1,-1,-1,-1,-1,-1,-1,-1,-1,-1,-1,-1,-1,-1],"split_conditions":[1.68E2,9.8E1,2.7E2,6.579438E-1,2.00001E0,2.00001E0,8.2613117E-1,2.00001E0,2.00001E0,6.16E2,2.00001E0,1.968E2,1.3E2,1.976E3,3.309E3,5.04E2,2.00001E0,2.8324058E-2,2.00001E0,1.3E2,1.011895E0,1.104E2,2.00001E0,2.00001E0,8.2613117E-1,2.00001E0,2.026E3,4.84E2,1.3136327E0,1.3E2,2.00001E0,-1.7692335E-2,3.4683035E-4,-1.6682958E-2,-9.7266E-3,2.8439788E-2,-6.6555277E-3,-5.7977876E-3,-1.2794752E-2,9.16655E-4,-1.5695347E-2,-1.3508189E-2,-4.8731435E-3,-7.206588E-3,2.312415E-3,3.0838766E-3,-1.0834372E-2,-1.8823977E-3,1.2835734E-2,2.7222617E-3,9.671968E-3,4.371284E-3,-2.2453186E-3,3.070504E-5,1.3600005E-2,-2.1916809E-2,1.5410574E-2,1.7870411E-2,1.1420035E-2,-2.0876313E-3,2.105809E-2],"split_indices":[2,2,2,5,19,24,5,20,723,3,20,3,7,3,3,3,19,0,724,7,5,3,23,1533,5,19,0,2,1,7,823,0,0,0,0,0,0,0,0,0,0,0,0,0,0,0,0,0,0,0,0,0,0,0,0,0,0,0,0,0,0],"split_type":[0,0,0,0,0,0,0,0,0,0,0,0,0,0,0,0,0,0,0,0,0,0,0,0,0,0,0,0,0,0,0,0,0,0,0,0,0,0,0,0,0,0,0,0,0,0,0,0,0,0,0,0,0,0,0,0,0,0,0,0,0],"sum_hessian":[8.664E3,5.321E3,3.343E3,2.445E3,2.876E3,2.264E3,1.079E3,7.57E2,1.688E3,3.89E2,2.487E3,2.77E2,1.987E3,1.89E2,8.9E2,1.3E2,6.27E2,9E0,1.679E3,3.3E2,5.9E1,5.76E2,1.911E3,1.2E1,2.65E2,5.66E2,1.421E3,1.33E2,5.6E1,7.42E2,1.48E2,1.26E2,4E0,7E1,5.57E2,6E0,1.673E3,4.1E1,2.89E2,4.7E1,1.2E1,6.3E1,5.13E2,2.47E2,1.664E3,9E0,3E0,6E0,2.59E2,1.05E2,4.61E2,8.79E2,5.42E2,1.04E2,2.9E1,2E0,5.4E1,2.12E2,5.3E2,1E0,1.47E2],"tree_param":{"num_deleted":"0","num_feature":"1538","num_nodes":"61","size_leaf_vector":"1"}},{"base_weights":[-2.962545E-3,-1.7995425E-1,2.0118478E-1,-1.501891E-2,-2.2969021E-1,8.520712E-2,3.7013066E-1,-1.3438499E-1,8.424117E-2,-3.8676283E-1,-1.8609864E-1,-1.6451171E-1,1.4980142E-1,1.4074703E-1,4.1725782E-1,7.0416737E-1,-1.4805242E-1,-1.7308885E-1,1.064413E-1,-4.582046E-1,-3.3181536E-1,-4.2606857E-1,-1.5402699E-1,2.4933623E-2,-2.7267262E-1,2.7985626E-1,7.290943E-2,-1.8268365E-1,2.5149468E-1,3.3866283E-1,5.6695867E-1,8.881059E-3,2.6695184E-2,-7.6238383E-3,-3.0726735E-3,-9.609184E-3,1.8216359E-3,3.5924152E-3,-6.8621975E-3,2.4051746E-2,-1.3932431E-2,-1.9344777E-2,-9.318004E-3,-1.3695301E-2,5.4285175E-4,-8.5259E-3,-3.286092E-3,2.9716382E-3,-6.576013E-3,-9.331753E-3,3.688506E-4,8.796552E-3,9.4239466E-4,6.4596343E-3,-8.0584214E-5,2.672072E-3,-1.1709828E-2,4.6850466E-3,1.7302318E-2,8.617095E-3,1.3263384E-2,1.8153537E-2,8.978949E-3],"categories":[],"categories_nodes":[],"categories_segments":[],"categories_sizes":[],"default_left":[0,0,0,0,0,0,0,0,0,0,0,0,0,0,0,0,0,0,0,0,0,0,0,0,0,1,0,0,0,0,1,0,0,0,0,0,0,0,0,0,0,0,0,0,0,0,0,0,0,0,0,0,0,0,0,0,0,0,0,0,0,0,0],"id":22,"left_children":[1,3,5,7,9,11,13,15,17,19,21,23,25,27,29,31,33,35,37,39,41,43,45,47,49,51,53,55,57,59,61,-1,-1,-1,-1,-1,-1,-1,-1,-1,-1,-1,-1,-1,-1,-1,-1,-1,-1,-1,-1,-1,-1,-1,-1,-1,-1,-1,-1,-1,-1,-1,-1],"loss_changes":[3.1240063E2,3.7985657E1,7.863815E1,1.273638E1,2.4289795E1,3.844729E1,1.7605133E1,5.697151E0,3.3718138E0,2.8784866E0,2.1383759E1,1.0047184E1,1.8909931E1,1.0075317E1,1.575058E1,3.4280658E-1,2.3021183E0,1.6372312E0,2.4401865E0,2.9776917E0,2.7215729E0,4.4431458E0,1.4215523E1,3.2607996E0,3.4167023E0,2.324562E0,1.2822523E1,4.0975685E0,6.389945E0,4.613182E0,4.568268E0,0E0,0E0,0E0,0E0,0E0,0E0,0E0,0E0,0E0,0E0,0E0,0E0,0E0,0E0,0E0,0E0,0E0,0E0,0E0,0E0,0E0,0E0,0E0,0E0,0E0,0E0,0E0,0E0,0E0,0E0,0E0,0E0],"parents":[2147483647,0,0,1,1,2,2,3,3,4,4,5,5,6,6,7,7,8,8,9,9,10,10,11,11,12,12,13,13,14,14,15,15,16,16,17,17,18,18,19,19,20,20,21,21,22,22,23,23,24,24,25,25,26,26,27,27,28,28,29,29,30,30],"right_children":[2,4,6,8,10,12,14,16,18,20,22,24,26,28,30,32,34,36,38,40,42,44,46,48,50,52,54,56,58,60,62,-1,-1,-1,-1,-1,-1,-1,-1,-1,-1,-1,-1,-1,-1,-1,-1,-1,-1,-1,-1,-1,-1,-1,-1,-1,-1,-1,-1,-1,-1,-1,-1],"split_conditions":[1.5E2,1.3E2,2.3E2,9.110225E1,6.7E1,2.00001E0,2.00001E0,2.00001E0,2.00001E0,5E1,2.00001E0,9.1E1,6.2E1,3.7635665E0,3.44E2,5.33E2,6.2E1,4.19E2,4.2E3,2.00001E0,2.00001E0,8.16E2,2.00001E0,2.00001E0,1.25E3,4.7E3,1.3E2,9.5E1,2.813E3,2.00001E0,3.5E3,8.881059E-3,2.6695184E-2,-7.6238383E-3,-3.0726735E-3,-9.609184E-3,1.8216359E-3,3.5924152E-3,-6.8621975E-3,2.4051746E-2,-1.3932431E-2,-1.9344777E-2,-9.318004E-3,-1.3695301E-2,5.4285175E-4,-8.5259E-3,-3.286092E-3,2.9716382E-3,-6.576013E-3,-9.331753E-3,3.688506E-4,8.796552E-3,9.4239466E-4,6.4596343E-3,-8.0584214E-5,2.672072E-3,-1.1709828E-2,4.6850466E-3,1.7302318E-2,8.617095E-3,1.3263384E-2,1.8153537E-2,8.978949E-3],"split_indices":[2,7,2,2,2,1535,1535,723,19,2,19,9,9,1,2,10,2,3,12,177,19,3,1535,4,3,12,7,9,3,1533,12,0,0,0,0,0,0,0,0,0,0,0,0,0,0,0,0,0,0,0,0,0,0,0,0,0,0,0,0,0,0,0,0],"split_type":[0,0,0,0,0,0,0,0,0,0,0,0,0,0,0,0,0,0,0,0,0,0,0,0,0,0,0,0,0,0,0,0,0,0,0,0,0,0,0,0,0,0,0,0,0,0,0,0,0,0,0,0,0,0,0,0,0,0,0,0,0,0,0],"sum_hessian":[8.644E3,4.63E3,4.014E3,1.073E3,3.557E3,2.381E3,1.633E3,4.87E2,5.86E2,7.71E2,2.786E3,4.89E2,1.892E3,2.79E2,1.354E3,7E0,4.8E2,4.6E1,5.4E2,3.32E2,4.39E2,3.27E2,2.459E3,1.78E2,3.11E2,7.02E2,1.19E3,7.1E1,2.08E2,8.9E2,4.64E2,3E0,4E0,1.43E2,3.37E2,2.8E1,1.8E1,5.2E2,2E1,1E0,3.31E2,2.6E1,4.13E2,3.06E2,2.1E1,6.25E2,1.834E3,1.37E2,4.1E1,2.74E2,3.7E1,6.66E2,3.6E1,4.12E2,7.78E2,3.1E1,4E1,1.62E2,4.6E1,5.97E2,2.93E2,4.05E2,5.9E1],"tree_param":{"num_deleted":"0","num_feature":"1538","num_nodes":"63","size_leaf_vector":"1"}},{"base_weights":[-5.24092E-3,-1.2663755E-1,2.7698833E-1,-2.2923197E-1,-1.9897817E-2,3.3724908E-2,3.3376077E-1,-8.5857384E-2,-2.7140388E-1,-2.3869371E-1,3.8995616E-2,-1.00038745E-1,2.8462788E-1,2.7401042E-1,5.558617E-1,-2.1446458E-1,-3.7080932E-2,-3.9048046E-1,-2.3011686E-1,-3.283759E-1,-7.8511186E-2,1.7899513E-1,-1.9916873E-2,8.761776E-2,-2.5320345E-1,1.4769435E-3,3.919393E-1,7.383554E-2,3.020833E-1,4.8860767E-1,6.7933613E-1,-9.983715E-3,-5.1813466E-3,-5.5237594E-3,-3.2357394E-4,-1.7344123E-2,-1.0939221E-2,-5.263845E-3,-1.0317187E-2,-1.956034E-3,-1.0919309E-2,6.8893945E-3,-4.260597E-3,-5.191771E-4,6.1224946E-3,6.0276883E-3,-2.2357032E-3,-9.039365E-3,3.9444864E-3,-8.219713E-3,1.5500031E-2,-1.8576656E-2,2.1593198E-3,-7.015705E-4,1.2977283E-2,2.6420792E-4,8.767649E-3,5.101286E-4,9.8606795E-3,1.6781991E-2,1.1402359E-2,1.0367336E-2,2.0857718E-2],"categories":[],"categories_nodes":[],"categories_segments":[],"categories_sizes":[],"default_left":[0,0,0,0,0,0,0,0,0,0,0,0,1,0,0,0,0,0,0,0,0,1,0,0,0,0,0,0,0,0,0,0,0,0,0,0,0,0,0,0,0,0,0,0,0,0,0,0,0,0,0,0,0,0,0,0,0,0,0,0,0,0,0],"id":23,"left_children":[1,3,5,7,9,11,13,15,17,19,21,23,25,27,29,31,33,35,37,39,41,43,45,47,49,51,53,55,57,59,61,-1,-1,-1,-1,-1,-1,-1,-1,-1,-1,-1,-1,-1,-1,-1,-1,-1,-1,-1,-1,-1,-1,-1,-1,-1,-1,-1,-1,-1,-1,-1,-1],"loss_changes":[2.9492532E2,6.5908905E1,3.5744537E1,1.853305E1,3.8034836E1,1.6507267E1,2.7702698E1,4.3768754E0,1.1566727E1,8.967037E0,1.9187761E1,9.248481E0,5.1953144E0,9.283569E0,3.3551178E0,8.910923E-1,1.9622226E0,2.742241E0,1.09040985E1,3.733364E0,4.455592E0,3.3967228E0,1.9768114E1,2.5133843E0,2.9741497E0,2.1450264E0,2.1029224E0,2.9091458E0,1.1007568E1,2.02314E0,5.7805634E-1,0E0,0E0,0E0,0E0,0E0,0E0,0E0,0E0,0E0,0E0,0E0,0E0,0E0,0E0,0E0,0E0,0E0,0E0,0E0,0E0,0E0,0E0,0E0,0E0,0E0,0E0,0E0,0E0,0E0,0E0,0E0,0E0],"parents":[2147483647,0,0,1,1,2,2,3,3,4,4,5,5,6,6,7,7,8,8,9,9,10,10,11,11,12,12,13,13,14,14,15,15,16,16,17,17,18,18,19,19,20,20,21,21,22,22,23,23,24,24,25,25,26,26,27,27,28,28,29,29,30,30],"right_children":[2,4,6,8,10,12,14,16,18,20,22,24,26,28,30,32,34,36,38,40,42,44,46,48,50,52,54,56,58,60,62,-1,-1,-1,-1,-1,-1,-1,-1,-1,-1,-1,-1,-1,-1,-1,-1,-1,-1,-1,-1,-1,-1,-1,-1,-1,-1,-1,-1,-1,-1,-1,-1],"split_conditions":[1.88E2,1.104893E2,2.00001E0,1.3E2,2.00001E0,1.125E3,3.44E2,6.7E1,6.0145233E1,5.04E2,5.5E1,1.17E2,1E0,2.00001E0,4.84E2,5.04E1,2.00001E0,2.00001E0,2.00001E0,2.00001E0,2.00001E0,7.684108E-1,9E1,2.00001E0,6E2,2.0499156E0,2.00001E0,1.635E3,2.00001E0,1.26E2,2.00001E0,-9.983715E-3,-5.1813466E-3,-5.5237594E-3,-3.2357394E-4,-1.7344123E-2,-1.0939221E-2,-5.263845E-3,-1.0317187E-2,-1.956034E-3,-1.0919309E-2,6.8893945E-3,-4.260597E-3,-5.191771E-4,6.1224946E-3,6.0276883E-3,-2.2357032E-3,-9.039365E-3,3.9444864E-3,-8.219713E-3,1.5500031E-2,-1.8576656E-2,2.1593198E-3,-7.015705E-4,1.2977283E-2,2.6420792E-4,8.767649E-3,5.101286E-4,9.8606795E-3,1.6781991E-2,1.1402359E-2,1.0367336E-2,2.0857718E-2],"split_indices":[2,2,1535,7,1535,3,2,2,2,3,9,9,5,20,2,3,20,23,13,15,16,5,7,20,2,1,22,3,23,9,23,0,0,0,0,0,0,0,0,0,0,0,0,0,0,0,0,0,0,0,0,0,0,0,0,0,0,0,0,0,0,0,0],"split_type":[0,0,0,0,0,0,0,0,0,0,0,0,0,0,0,0,0,0,0,0,0,0,0,0,0,0,0,0,0,0,0,0,0,0,0,0,0,0,0,0,0,0,0,0,0,0,0,0,0,0,0,0,0,0,0,0,0,0,0,0,0,0,0],"sum_hessian":[8.606E3,6.018E3,2.588E3,3.068E3,2.95E3,4.9E2,2.098E3,6.98E2,2.37E3,6.25E2,2.325E3,3.2E2,1.7E2,1.655E3,4.43E2,1.91E2,5.07E2,6.08E2,1.762E3,4E2,2.25E2,6.88E2,1.637E3,1.44E2,1.76E2,4.7E1,1.23E2,2.04E2,1.451E3,2.9E2,1.53E2,4.8E1,1.43E2,7.6E1,4.31E2,7.1E1,5.37E2,1.192E3,5.7E2,4.8E1,3.52E2,3.8E1,1.87E2,7.8E1,6.1E2,3.24E2,1.313E3,1.4E1,1.3E2,1.72E2,4E0,4E0,4.3E1,1.1E1,1.12E2,1.58E2,4.6E1,1.24E2,1.327E3,1.73E2,1.17E2,8E0,1.45E2],"tree_param":{"num_deleted":"0","num_feature":"1538","num_nodes":"63","size_leaf_vector":"1"}},{"base_weights":[-4.0102885E-3,-1.3026813E-1,2.4309568E-1,-2.0575234E-1,-5.962924E-3,1.6264808E-1,4.1761392E-1,-5.38819E-2,-2.4964795E-1,2.0035575E-1,-6.544856E-2,-6.2248427E-2,2.1859708E-1,1.9195525E-1,4.6232215E-1,-1.2737693E-1,4.834229E-2,-4.6956113E-1,-2.2684133E-1,-5.6325294E-2,2.209696E-1,-3.108244E-1,-1.8540666E-2,1.0313517E-1,-1.9280857E-1,3.0471203E-1,1.3285016E-1,-3.362793E-1,3.060069E-1,4.2314553E-1,6.620287E-1,2.0669606E-2,-4.2380234E-3,3.4801986E-3,-1.0732223E-3,-1.8693972E-2,-1.2487086E-2,-1.0977265E-2,-5.5114967E-3,-1.3976683E-2,6.6684454E-4,-9.950633E-3,6.8749953E-3,-1.1791331E-2,-3.4957228E-3,4.730452E-3,-2.06893E-3,1.1763541E-2,1.3277555E-3,-7.7974936E-3,1.606093E-3,1.445457E-2,8.278381E-3,7.489579E-3,2.037874E-3,1.4880209E-3,-1.5650254E-2,5.4829954E-3,1.8476332E-2,1.3614623E-2,2.3023721E-3,2.0851675E-2,1.3961025E-2],"categories":[],"categories_nodes":[],"categories_segments":[],"categories_sizes":[],"default_left":[0,0,0,0,0,0,0,0,0,0,0,0,0,0,0,0,0,0,0,0,0,0,0,0,0,0,0,0,0,1,1,0,0,0,0,0,0,0,0,0,0,0,0,0,0,0,0,0,0,0,0,0,0,0,0,0,0,0,0,0,0,0,0],"id":24,"left_children":[1,3,5,7,9,11,13,15,17,19,21,23,25,27,29,31,33,35,37,39,41,43,45,47,49,51,53,55,57,59,61,-1,-1,-1,-1,-1,-1,-1,-1,-1,-1,-1,-1,-1,-1,-1,-1,-1,-1,-1,-1,-1,-1,-1,-1,-1,-1,-1,-1,-1,-1,-1,-1],"loss_changes":[2.7124512E2,5.398902E1,4.1208435E1,2.3852417E1,2.6706882E1,2.5355236E1,9.26358E0,6.0465846E0,1.3821457E1,2.5892506E0,1.9434734E1,8.700073E0,1.1870064E1,9.441038E0,5.767685E0,5.404323E0,1.922245E0,1.8698196E0,1.5033859E1,1.2007449E0,2.1190815E0,4.2835274E0,1.2619798E1,3.0111985E0,3.7335463E0,3.9631424E0,6.1252203E0,2.0290105E0,4.7755804E0,6.8613815E0,4.8844147E-1,0E0,0E0,0E0,0E0,0E0,0E0,0E0,0E0,0E0,0E0,0E0,0E0,0E0,0E0,0E0,0E0,0E0,0E0,0E0,0E0,0E0,0E0,0E0,0E0,0E0,0E0,0E0,0E0,0E0,0E0,0E0,0E0],"parents":[2147483647,0,0,1,1,2,2,3,3,4,4,5,5,6,6,7,7,8,8,9,9,10,10,11,11,12,12,13,13,14,14,15,15,16,16,17,17,18,18,19,19,20,20,21,21,22,22,23,23,24,24,25,25,26,26,27,27,28,28,29,29,30,30],"right_children":[2,4,6,8,10,12,14,16,18,20,22,24,26,28,30,32,34,36,38,40,42,44,46,48,50,52,54,56,58,60,62,-1,-1,-1,-1,-1,-1,-1,-1,-1,-1,-1,-1,-1,-1,-1,-1,-1,-1,-1,-1,-1,-1,-1,-1,-1,-1,-1,-1,-1,-1,-1,-1],